{"learner":{"attributes":{"best_iteration":"149","best_score":"0.9422343308880371","scikit_learn":"{\"_estimator_type\": \"classifier\"}"},"feature_names":["jumlah_event","rata_jeda","std_jeda","min_jeda","maks_jeda","jumlah_kategori_unik","rata_harga","std_harga","rasio_view","rasio_cart","rasio_purchase","durasi_sesi"],"feature_types":["int","float","float","float","float","int","float","float","float","float","float","float"],"gradient_booster":{"model":{"cats":{"enc":[],"feature_segments":[],"sorted_idx":[]},"gbtree_model_param":{"num_parallel_tree":"1","num_trees":"170"},"iteration_indptr":[0,1,2,3,4,5,6,7,8,9,10,11,12,13,14,15,16,17,18,19,20,21,22,23,24,25,26,27,28,29,30,31,32,33,34,35,36,37,38,39,40,41,42,43,44,45,46,47,48,49,50,51,52,53,54,55,56,57,58,59,60,61,62,63,64,65,66,67,68,69,70,71,72,73,74,75,76,77,78,79,80,81,82,83,84,85,86,87,88,89,90,91,92,93,94,95,96,97,98,99,100,101,102,103,104,105,106,107,108,109,110,111,112,113,114,115,116,117,118,119,120,121,122,123,124,125,126,127,128,129,130,131,132,133,134,135,136,137,138,139,140,141,142,143,144,145,146,147,148,149,150,151,152,153,154,155,156,157,158,159,160,161,162,163,164,165,166,167,168,169,170],"tree_info":[0,0,0,0,0,0,0,0,0,0,0,0,0,0,0,0,0,0,0,0,0,0,0,0,0,0,0,0,0,0,0,0,0,0,0,0,0,0,0,0,0,0,0,0,0,0,0,0,0,0,0,0,0,0,0,0,0,0,0,0,0,0,0,0,0,0,0,0,0,0,0,0,0,0,0,0,0,0,0,0,0,0,0,0,0,0,0,0,0,0,0,0,0,0,0,0,0,0,0,0,0,0,0,0,0,0,0,0,0,0,0,0,0,0,0,0,0,0,0,0,0,0,0,0,0,0,0,0,0,0,0,0,0,0,0,0,0,0,0,0,0,0,0,0,0,0,0,0,0,0,0,0,0,0,0,0,0,0,0,0,0,0,0,0,0,0,0,0,0,0],"trees":[{"base_weights":[2.3994322E-9,-1.9179684E0,1.6712215E0,-1.1811286E0,-1.9997498E-1,-1.8603966E0,1.8334047E0,-1.8717706E0,-3.4216884E-1,1.6499513E-1,-1.9953704E-1,2.0519032E-1,1.9052088E0,-1.9957036E-1,6.746743E-2,1.6421217E-1,-7.360404E-2,1.349521E-1,-6.887227E-2,1.9120179E-1,-1.884058E-1],"categories":[],"categories_nodes":[],"categories_segments":[],"categories_sizes":[],"default_left":[0,0,0,0,0,0,0,0,0,0,0,0,0,0,0,0,0,0,0,0,0],"id":0,"left_children":[1,3,5,7,-1,9,11,13,15,-1,-1,17,19,-1,-1,-1,-1,-1,-1,-1,-1],"loss_changes":[6.1154875E4,5.3296875E2,5.8429688E3,5.1500684E2,0E0,2.1562341E2,1.1392988E3,1.5531897E2,3.1621088E2,0E0,0E0,4.2325427E2,2.4448438E2,0E0,0E0,0E0,0E0,0E0,0E0,0E0,0E0],"parents":[2147483647,0,0,1,1,2,2,3,3,5,5,6,6,7,7,8,8,11,11,12,12],"right_children":[2,4,6,8,-1,10,12,14,16,-1,-1,18,20,-1,-1,-1,-1,-1,-1,-1,-1],"split_conditions":[1.6949153E-2,9.245283E-1,1.9341234E0,2.008E1,-1.9997498E-1,6.4366665E0,1.6949153E-2,9.117647E-1,7.7E1,1.6499513E-1,-1.9953704E-1,5E0,3.5E-1,-1.9957036E-1,6.746743E-2,1.6421217E-1,-7.360404E-2,1.349521E-1,-6.887227E-2,1.9120179E-1,-1.884058E-1],"split_indices":[9,8,7,7,0,6,10,8,11,0,0,0,9,0,0,0,0,0,0,0,0],"split_type":[0,0,0,0,0,0,0,0,0,0,0,0,0,0,0,0,0,0,0,0,0],"sum_hessian":[1.9077E4,8.882686E3,1.0194314E4,8.889357E2,7.99375E3,4.4714047E2,9.747174E3,4.8689047E2,4.0204523E2,1.6140476E1,4.31E2,4.1185715E2,9.335316E3,4.645E2,2.2390476E1,6.6061905E1,3.3598334E2,1.8040475E2,2.3145238E2,9.319066E3,1.625E1],"tree_param":{"num_deleted":"0","num_feature":"12","num_nodes":"21","size_leaf_vector":"1"}},{"base_weights":[-3.4623692E-5,-1.7434925E0,1.5180479E0,-1.070026E0,-1.8185215E-1,-1.691554E0,1.6653014E0,-1.7016042E0,-3.0838162E-1,1.5045325E-1,-1.814857E-1,1.8539634E-1,1.7309886E0,-1.815136E-1,6.107805E-2,1.4834917E-2,-1.9143437E-1,1.2210282E-1,-6.2090643E-2,1.8243738E-1,1.471421E-1],"categories":[],"categories_nodes":[],"categories_segments":[],"categories_sizes":[],"default_left":[0,0,0,0,0,0,0,0,0,0,0,0,0,0,0,0,0,0,0,0,0],"id":1,"left_children":[1,3,5,7,-1,9,11,13,15,-1,-1,17,19,-1,-1,-1,-1,-1,-1,-1,-1],"loss_changes":[5.0033016E4,4.426543E2,4.778717E3,4.2491376E2,0E0,1.7761414E2,9.3895703E2,1.2798096E2,2.9525586E2,0E0,0E0,3.4459457E2,2.2157031E2,0E0,0E0,0E0,0E0,0E0,0E0,0E0,0E0],"parents":[2147483647,0,0,1,1,2,2,3,3,5,5,6,6,7,7,8,8,11,11,12,12],"right_children":[2,4,6,8,-1,10,12,14,16,-1,-1,18,20,-1,-1,-1,-1,-1,-1,-1,-1],"split_conditions":[1.6949153E-2,9.245283E-1,1.9341234E0,2.008E1,-1.8185215E-1,6.4366665E0,1.6949153E-2,9.117647E-1,3.20026E2,1.5045325E-1,-1.814857E-1,5E0,8.8E1,-1.815136E-1,6.107805E-2,1.4834917E-2,-1.9143437E-1,1.2210282E-1,-6.2090643E-2,1.8243738E-1,1.471421E-1],"split_indices":[9,8,7,7,0,6,10,8,6,0,0,0,11,0,0,0,0,0,0,0,0],"split_type":[0,0,0,0,0,0,0,0,0,0,0,0,0,0,0,0,0,0,0,0,0],"sum_hessian":[1.8901832E4,8.79778E3,1.0104051E4,8.834177E2,7.9143623E3,4.4276938E2,9.661282E3,4.822705E2,4.0114722E2,1.6031122E1,4.2673825E2,4.10764E2,9.250518E3,4.599055E2,2.2365017E1,3.1303006E2,8.811719E1,1.7958586E2,2.3117813E2,6.7985605E3,2.4519573E3],"tree_param":{"num_deleted":"0","num_feature":"12","num_nodes":"21","size_leaf_vector":"1"}},{"base_weights":[-1.18979355E-4,-1.6112009E0,1.400097E0,-9.792449E-1,-1.6823949E-1,-1.5642724E0,1.5357376E0,-1.5725398E0,-2.7915585E-1,1.3873129E-1,-1.6791233E-1,1.6840081E-1,1.5974644E0,-1.6793722E-1,5.5397816E-2,3.327705E-2,-1.4422289E-1,1.1133726E-1,-5.6089718E-2,1.603872E-1,-1.8459319E-1],"categories":[],"categories_nodes":[],"categories_segments":[],"categories_sizes":[],"default_left":[0,0,0,0,0,0,0,0,0,0,0,0,0,0,0,0,0,0,0,0,0],"id":2,"left_children":[1,3,5,7,-1,9,11,13,15,-1,-1,17,19,-1,-1,-1,-1,-1,-1,-1,-1],"loss_changes":[4.1627836E4,3.8440234E2,3.9720977E3,3.614085E2,0E0,1.4893445E2,7.965801E2,1.08008545E2,2.8575925E2,0E0,0E0,2.8243814E2,2.0227148E2,0E0,0E0,0E0,0E0,0E0,0E0,0E0,0E0],"parents":[2147483647,0,0,1,1,2,2,3,3,5,5,6,6,7,7,8,8,11,11,12,12],"right_children":[2,4,6,8,-1,10,12,14,16,-1,-1,18,20,-1,-1,-1,-1,-1,-1,-1,-1],"split_conditions":[1.6949153E-2,9.245283E-1,1.9341234E0,2.008E1,-1.6823949E-1,6.4366665E0,1.6949153E-2,9.117647E-1,5.02E1,1.3873129E-1,-1.6791233E-1,5E0,3.5E-1,-1.6793722E-1,5.5397816E-2,3.327705E-2,-1.4422289E-1,1.1133726E-1,-5.6089718E-2,1.603872E-1,-1.8459319E-1],"split_indices":[9,8,7,7,0,6,10,8,1,0,0,0,9,0,0,0,0,0,0,0,0],"split_type":[0,0,0,0,0,0,0,0,0,0,0,0,0,0,0,0,0,0,0,0,0],"sum_hessian":[1.8451178E4,8.579498E3,9.871681E3,8.7016766E2,7.70933E3,4.3147342E2,9.440207E3,4.7033392E2,3.998337E2,1.5745517E1,4.157279E2,4.079199E2,9.032287E3,4.480357E2,2.2298235E1,2.6245987E2,1.3737384E2,1.7745712E2,2.3046278E2,9.016044E3,1.6243084E1],"tree_param":{"num_deleted":"0","num_feature":"12","num_nodes":"21","size_leaf_vector":"1"}},{"base_weights":[-2.5484647E-4,-1.5074133E0,1.3061339E0,-9.026274E-1,-1.5766989E-1,-1.4650737E0,1.4324387E0,-1.4712709E0,-2.5291863E-1,1.2900251E-1,-1.5736315E-1,1.5354514E-1,1.4916346E0,-1.5738647E-1,5.0314095E-2,1.565524E-2,-1.7228441E-1,1.02093056E-1,-5.0740957E-2,1.5782642E-1,1.2158533E-1],"categories":[],"categories_nodes":[],"categories_segments":[],"categories_sizes":[],"default_left":[0,0,0,0,0,0,0,0,0,0,0,0,0,0,0,0,0,0,0,0,0],"id":3,"left_children":[1,3,5,7,-1,9,11,13,15,-1,-1,17,19,-1,-1,-1,-1,-1,-1,-1,-1],"loss_changes":[3.5071914E4,3.4514648E2,3.3419082E3,3.1457355E2,0E0,1.26579346E2,6.9068945E2,9.283331E1,2.404729E2,0E0,0E0,2.3262488E2,2.064707E2,0E0,0E0,0E0,0E0,0E0,0E0,0E0,0E0],"parents":[2147483647,0,0,1,1,2,2,3,3,5,5,6,6,7,7,8,8,11,11,12,12],"right_children":[2,4,6,8,-1,10,12,14,16,-1,-1,18,20,-1,-1,-1,-1,-1,-1,-1,-1],"split_conditions":[1.6949153E-2,9.245283E-1,1.9341234E0,2.008E1,-1.5766989E-1,6.4366665E0,1.6949153E-2,9.117647E-1,3.20026E2,1.2900251E-1,-1.5736315E-1,5E0,1.3E2,-1.5738647E-1,5.0314095E-2,1.565524E-2,-1.7228441E-1,1.02093056E-1,-5.0740957E-2,1.5782642E-1,1.2158533E-1],"split_indices":[9,8,7,7,0,6,10,8,6,0,0,0,11,0,0,0,0,0,0,0,0],"split_type":[0,0,0,0,0,0,0,0,0,0,0,0,0,0,0,0,0,0,0,0,0],"sum_hessian":[1.7810633E4,8.269777E3,9.5408545E3,8.514657E2,7.4183115E3,4.1543127E2,9.125424E3,4.5338547E2,3.9808026E2,1.53359165E1,4.0009537E2,4.0385934E2,8.721564E3,4.3118332E2,2.2202143E1,3.1204788E2,8.603238E1,1.744198E2,2.2943956E2,6.6331934E3,2.0883706E3],"tree_param":{"num_deleted":"0","num_feature":"12","num_nodes":"21","size_leaf_vector":"1"}},{"base_weights":[-3.8870669E-4,-1.4239377E0,1.2291036E0,-8.3729815E-1,-1.4925472E-1,-1.3857652E0,1.3476697E0,-1.3896751E0,-2.301537E-1,1.2072798E-1,-1.4895622E-1,1.403745E-1,1.4053279E0,-1.4897892E-1,4.574042E-2,3.196622E-2,-1.2952986E-1,9.3995236E-2,-4.594682E-2,1.4989269E-1,1.1509378E-1],"categories":[],"categories_nodes":[],"categories_segments":[],"categories_sizes":[],"default_left":[0,0,0,0,0,0,0,0,0,0,0,0,0,0,0,0,0,0,0,0,0],"id":4,"left_children":[1,3,5,7,-1,9,11,13,15,-1,-1,17,19,-1,-1,-1,-1,-1,-1,-1,-1],"loss_changes":[2.9837123E4,3.1672754E2,2.8378105E3,2.778695E2,0E0,1.0872174E2,6.08959E2,8.096155E1,2.325332E2,0E0,0E0,1.9227522E2,1.9714062E2,0E0,0E0,0E0,0E0,0E0,0E0,0E0,0E0],"parents":[2147483647,0,0,1,1,2,2,3,3,5,5,6,6,7,7,8,8,11,11,12,12],"right_children":[2,4,6,8,-1,10,12,14,16,-1,-1,18,20,-1,-1,-1,-1,-1,-1,-1,-1],"split_conditions":[1.6949153E-2,9.245283E-1,1.9341234E0,2.008E1,-1.4925472E-1,6.4366665E0,1.6949153E-2,9.117647E-1,5.02E1,1.2072798E-1,-1.4895622E-1,5E0,8.8E1,-1.4897892E-1,4.574042E-2,3.196622E-2,-1.2952986E-1,9.3995236E-2,-4.594682E-2,1.4989269E-1,1.1509378E-1],"split_indices":[9,8,7,7,0,6,10,8,1,0,0,0,11,0,0,0,0,0,0,0,0],"split_type":[0,0,0,0,0,0,0,0,0,0,0,0,0,0,0,0,0,0,0,0,0],"sum_hessian":[1.7045422E4,7.8992437E3,9.146178E3,8.284935E2,7.0707505E3,3.9626303E2,8.749915E3,4.3313797E2,3.953556E2,1.4842328E1,3.8142072E2,3.989895E2,8.350925E3,4.1105188E2,2.2086086E1,2.6121777E2,1.3413782E2,1.7077843E2,2.2821107E2,6.1011943E3,2.2497307E3],"tree_param":{"num_deleted":"0","num_feature":"12","num_nodes":"21","size_leaf_vector":"1"}},{"base_weights":[-5.279382E-4,-1.3552369E0,1.1645105E0,-7.7971756E-1,-1.4242242E-1,-1.3210624E0,1.2765169E0,-1.4319463E-1,-3.0272406E-1,1.1354108E-1,-1.4212368E-1,1.2856743E-1,1.3333813E0,1.389209E-1,-5.8465656E-2,8.6785726E-2,-4.163156E-2,1.4291519E-1,1.0775735E-1],"categories":[],"categories_nodes":[],"categories_segments":[],"categories_sizes":[],"default_left":[0,0,0,0,0,0,0,0,0,0,0,0,0,0,0,0,0,0,0],"id":5,"left_children":[1,3,5,7,-1,9,11,-1,13,-1,-1,15,17,-1,-1,-1,-1,-1,-1],"loss_changes":[2.5577102E4,2.963838E2,2.4273105E3,2.4977255E2,0E0,9.418231E1,5.44083E2,0E0,2.2299898E2,0E0,0E0,1.5932452E2,1.9307715E2,0E0,0E0,0E0,0E0,0E0,0E0],"parents":[2147483647,0,0,1,1,2,2,3,3,5,5,6,6,8,8,11,11,12,12],"right_children":[2,4,6,8,-1,10,12,-1,14,-1,-1,16,18,-1,-1,-1,-1,-1,-1],"split_conditions":[1.6949153E-2,9.245283E-1,1.9341234E0,8.209563E0,-1.4242242E-1,6.4366665E0,1.6949153E-2,-1.4319463E-1,7.7E1,1.1354108E-1,-1.4212368E-1,5E0,8.8E1,1.389209E-1,-5.8465656E-2,8.6785726E-2,-4.163156E-2,1.4291519E-1,1.0775735E-1],"split_indices":[9,8,7,7,0,6,10,0,11,0,0,0,11,0,0,0,0,0,0],"split_type":[0,0,0,0,0,0,0,0,0,0,0,0,0,0,0,0,0,0,0],"sum_hessian":[1.62036E4,7.4918726E3,8.711728E3,8.0323956E2,6.688633E3,3.7518015E2,8.336547E3,3.3844986E2,4.6478967E2,1.42953415E1,3.608848E2,3.9361963E2,7.9429272E3,6.582618E1,3.989635E2,1.6676392E2,2.2685571E2,5.775921E3,2.1670063E3],"tree_param":{"num_deleted":"0","num_feature":"12","num_nodes":"19","size_leaf_vector":"1"}},{"base_weights":[-6.440442E-4,-1.2972739E0,1.1092114E0,-7.259369E-1,-1.3678777E-1,-1.267394E0,1.2155368E0,-9.6092165E-1,5.4267454E-1,1.0718409E-1,-1.3648236E-1,1.1789025E-1,1.2721812E0,-1.1348341E-1,1.6653566E-2,9.64243E-2,-1.5774623E-1,-2.6554856E-2,1.06561616E-1,1.3648538E-1,9.919172E-2],"categories":[],"categories_nodes":[],"categories_segments":[],"categories_sizes":[],"default_left":[0,0,0,0,0,0,0,0,0,0,0,0,0,0,0,0,0,0,0,0,0],"id":6,"left_children":[1,3,5,7,-1,9,11,13,15,-1,-1,17,19,-1,-1,-1,-1,-1,-1,-1,-1],"loss_changes":[2.2053986E4,2.8411426E2,2.0881045E3,2.3289044E2,0E0,8.216321E1,4.9129688E2,1.2921466E2,1.1097277E2,0E0,0E0,1.416376E2,1.9386426E2,0E0,0E0,0E0,0E0,0E0,0E0,0E0,0E0],"parents":[2147483647,0,0,1,1,2,2,3,3,5,5,6,6,7,7,8,8,11,11,12,12],"right_children":[2,4,6,8,-1,10,12,14,16,-1,-1,18,20,-1,-1,-1,-1,-1,-1,-1,-1],"split_conditions":[1.6949153E-2,9.245283E-1,1.9341234E0,2E0,-1.3678777E-1,6.4366665E0,1.6949153E-2,8.974359E-1,1.3375473E2,1.0718409E-1,-1.3648236E-1,2E0,1.3E2,-1.1348341E-1,1.6653566E-2,9.64243E-2,-1.5774623E-1,-2.6554856E-2,1.06561616E-1,1.3648538E-1,9.919172E-2],"split_indices":[9,8,7,5,0,6,10,8,7,0,0,5,11,0,0,0,0,0,0,0,0],"split_type":[0,0,0,0,0,0,0,0,0,0,0,0,0,0,0,0,0,0,0,0,0],"sum_hessian":[1.5323147E4,7.066859E3,8.256289E3,7.7848865E2,6.28837E3,3.530877E2,7.903201E3,6.5702966E2,1.21458984E2,1.3718257E1,3.3936945E2,3.8798358E2,7.515218E3,5.692199E2,8.78098E1,1.0176852E2,1.9690475E1,2.767383E2,1.1124528E2,5.6448213E3,1.8703965E3],"tree_param":{"num_deleted":"0","num_feature":"12","num_nodes":"21","size_leaf_vector":"1"}},{"base_weights":[-7.738844E-4,-1.2472807E0,1.0602168E0,-6.7439187E-1,-1.3208117E-1,-1.3218534E-1,1.1572231E0,-1.3373852E-1,-2.3144852E-1,1.2482233E-1,1.2163131E0,1.2990843E-1,-4.871675E-2,8.256274E-2,-4.0973123E-2,1.3238768E-1,9.423367E-2],"categories":[],"categories_nodes":[],"categories_segments":[],"categories_sizes":[],"default_left":[0,0,0,0,0,0,0,0,0,0,0,0,0,0,0,0,0],"id":7,"left_children":[1,3,5,7,-1,-1,9,-1,11,13,15,-1,-1,-1,-1,-1,-1],"loss_changes":[1.9097045E4,2.787959E2,1.804001E3,2.2208115E2,0E0,0E0,4.5711523E2,0E0,1.787883E2,1.5277255E2,2.076875E2,0E0,0E0,0E0,0E0,0E0,0E0],"parents":[2147483647,0,0,1,1,2,2,3,3,6,6,8,8,9,9,10,10],"right_children":[2,4,6,8,-1,-1,10,-1,12,14,16,-1,-1,-1,-1,-1,-1],"split_conditions":[1.6949153E-2,9.245283E-1,4.330127E-1,8.209563E0,-1.3208117E-1,-1.3218534E-1,1.6949153E-2,-1.3373852E-1,7.7E1,5E0,8.8E1,1.2990843E-1,-4.871675E-2,8.256274E-2,-4.0973123E-2,1.3238768E-1,9.423367E-2],"split_indices":[9,8,7,7,0,0,10,0,11,0,11,0,0,0,0,0,0],"split_type":[0,0,0,0,0,0,0,0,0,0,0,0,0,0,0,0,0],"sum_hessian":[1.4437759E4,6.638422E3,7.7993374E3,7.562849E2,5.8821367E3,3.0469415E2,7.494643E3,3.0209406E2,4.5419083E2,4.0590604E2,7.0887373E3,6.4437645E1,3.8975317E2,1.754045E2,2.3050154E2,5.0875317E3,2.0012053E3],"tree_param":{"num_deleted":"0","num_feature":"12","num_nodes":"17","size_leaf_vector":"1"}},{"base_weights":[-9.173512E-4,-1.2045825E0,1.017127E0,-6.300462E-1,-1.2810807E-1,-1.1847417E0,1.1142544E0,-1.2952437E-1,-2.1052362E-1,9.778365E-2,-1.2802292E-1,9.77289E-2,1.1725805E0,8.734477E-3,-1.4794134E-1,-9.4839476E-2,4.3443214E-2,1.2833253E-1,8.970341E-2],"categories":[],"categories_nodes":[],"categories_segments":[],"categories_sizes":[],"default_left":[0,0,0,0,0,0,0,0,0,0,0,0,0,0,0,0,0,0,0],"id":8,"left_children":[1,3,5,7,-1,9,11,-1,13,-1,-1,15,17,-1,-1,-1,-1,-1,-1],"loss_changes":[1.660835E4,2.721543E2,1.5717026E3,2.039273E2,0E0,6.541293E1,4.168877E2,0E0,1.7018251E2,0E0,0E0,1.3522812E2,2.0182227E2,0E0,0E0,0E0,0E0,0E0,0E0],"parents":[2147483647,0,0,1,1,2,2,3,3,5,5,6,6,8,8,11,11,12,12],"right_children":[2,4,6,8,-1,10,12,-1,14,-1,-1,16,18,-1,-1,-1,-1,-1,-1],"split_conditions":[1.6949153E-2,9.245283E-1,1.9341234E0,8.209563E0,-1.2810807E-1,6.4366665E0,1.6949153E-2,-1.2952437E-1,3.20026E2,9.778365E-2,-1.2802292E-1,2.5652208E1,8.8E1,8.734477E-3,-1.4794134E-1,-9.4839476E-2,4.3443214E-2,1.2833253E-1,8.970341E-2],"split_indices":[9,8,7,7,0,6,10,0,6,0,0,7,11,0,0,0,0,0,0],"split_type":[0,0,0,0,0,0,0,0,0,0,0,0,0,0,0,0,0,0,0],"sum_hessian":[1.3551582E4,6.209599E3,7.341983E3,7.307281E2,5.478871E3,3.0970886E2,7.032274E3,2.8180652E2,4.4892154E2,1.2705987E1,2.9700287E2,3.8174673E2,6.6505273E3,3.6432776E2,8.459378E1,9.25088E1,2.8923795E2,4.7412964E3,1.9092307E3],"tree_param":{"num_deleted":"0","num_feature":"12","num_nodes":"19","size_leaf_vector":"1"}},{"base_weights":[-1.1178936E-3,-1.167067E0,9.7780365E-1,-5.890916E-1,-1.2472434E-1,-1.1513854E0,1.0707027E0,-1.1420635E0,-1.0346977E-1,9.286862E-2,-1.24585025E-1,1.2433661E0,7.10802E-1,3.6718484E-2,-1.2827785E-1,3.698395E-2,-1.068401E-1,1.2443105E-1,-1.3071124E-1,7.584843E-2,-2.8889096E-1],"categories":[],"categories_nodes":[],"categories_segments":[],"categories_sizes":[],"default_left":[0,0,0,0,0,0,0,0,0,0,0,0,0,0,0,0,0,0,0,0,0],"id":9,"left_children":[1,3,5,7,-1,9,11,13,15,-1,-1,17,19,-1,-1,-1,-1,-1,-1,-1,-1],"loss_changes":[1.4486113E4,2.6769287E2,1.3659048E3,1.898833E2,0E0,5.7927917E1,4.0995605E2,7.071005E1,1.7294725E2,0E0,0E0,1.2385742E1,3.7050342E2,0E0,0E0,0E0,0E0,0E0,0E0,0E0,0E0],"parents":[2147483647,0,0,1,1,2,2,3,3,5,5,6,6,7,7,8,8,11,11,12,12],"right_children":[2,4,6,8,-1,10,12,14,16,-1,-1,18,20,-1,-1,-1,-1,-1,-1,-1,-1],"split_conditions":[1.6949153E-2,9.245283E-1,1.9341234E0,2.008E1,-1.2472434E-1,6.4366665E0,8.8E1,1.4388E1,5.02E1,9.286862E-2,-1.24585025E-1,3.5E-1,9.7557E2,3.6718484E-2,-1.2827785E-1,3.698395E-2,-1.068401E-1,1.2443105E-1,-1.3071124E-1,7.584843E-2,-2.8889096E-1],"split_indices":[9,8,7,7,0,6,11,6,1,0,0,9,6,0,0,0,0,0,0,0,0],"split_type":[0,0,0,0,0,0,0,0,0,0,0,0,0,0,0,0,0,0,0,0,0],"sum_hessian":[1.2689834E4,5.7915674E3,6.898266E3,7.0654767E2,5.0850195E3,2.8792004E2,6.610346E3,3.2973288E2,3.768148E2,1.2124003E1,2.7579605E2,4.4655366E3,2.1448096E3,2.7983583E1,3.017493E2,2.5322292E2,1.2359188E2,4.4643955E3,1.1410158E0,2.1175496E3,2.7260073E1],"tree_param":{"num_deleted":"0","num_feature":"12","num_nodes":"21","size_leaf_vector":"1"}},{"base_weights":[-1.394469E-3,-1.1341441E0,9.403189E-1,-5.5252427E-1,-1.2182093E-1,-1.1224242E0,1.0291017E0,-1.2302575E-1,-1.7348619E-1,8.830095E-2,-1.2162929E-1,1.2128166E0,6.624531E-1,9.999412E-3,-1.4102904E-1,1.21379495E-1,-1.2299245E-1,-3.1536534E-2,8.159905E-2],"categories":[],"categories_nodes":[],"categories_segments":[],"categories_sizes":[],"default_left":[0,0,0,0,0,0,0,0,0,0,0,0,0,0,0,0,0,0,0],"id":10,"left_children":[1,3,5,7,-1,9,11,-1,13,-1,-1,15,17,-1,-1,-1,-1,-1,-1],"loss_changes":[1.2659264E4,2.6273242E2,1.1879019E3,1.7502312E2,0E0,5.1501923E1,4.1771338E2,0E0,1.4850966E2,0E0,0E0,1.1382324E1,3.1196497E2,0E0,0E0,0E0,0E0,0E0,0E0],"parents":[2147483647,0,0,1,1,2,2,3,3,5,5,6,6,8,8,11,11,12,12],"right_children":[2,4,6,8,-1,10,12,-1,14,-1,-1,16,18,-1,-1,-1,-1,-1,-1],"split_conditions":[1.6949153E-2,9.245283E-1,1.9341234E0,8.209563E0,-1.2182093E-1,6.4366665E0,8.8E1,-1.2302575E-1,3.20026E2,8.830095E-2,-1.2162929E-1,3.5E-1,2.5652208E1,9.999412E-3,-1.4102904E-1,1.21379495E-1,-1.2299245E-1,-3.1536534E-2,8.159905E-2],"split_indices":[9,8,7,7,0,6,11,0,6,0,0,9,7,0,0,0,0,0,0],"split_type":[0,0,0,0,0,0,0,0,0,0,0,0,0,0,0,0,0,0,0],"sum_hessian":[1.1865407E4,5.3862715E3,6.479136E3,6.811552E2,4.705116E3,2.668813E2,6.212255E3,2.4350827E2,4.3764694E2,1.1557473E1,2.5532382E2,4.1370264E3,2.0752285E3,3.5915115E2,7.849581E1,4.135873E3,1.153396E0,2.814882E2,1.7937404E3],"tree_param":{"num_deleted":"0","num_feature":"12","num_nodes":"19","size_leaf_vector":"1"}},{"base_weights":[-1.6321484E-3,-1.1042645E0,9.054076E-1,-5.1712996E-1,-1.1931367E-1,-1.1955167E-1,9.864137E-1,-7.4642134E-1,5.524853E-1,1.1860906E0,6.070792E-1,-9.34184E-2,2.637213E-2,9.0009905E-2,-1.3944024E-1,7.569321E-2,1.193678E-1,6.5481015E-2,-2.5186178E-1],"categories":[],"categories_nodes":[],"categories_segments":[],"categories_sizes":[],"default_left":[0,0,0,0,0,0,0,0,0,0,0,0,0,0,0,0,0,0,0],"id":11,"left_children":[1,3,5,7,-1,-1,9,11,13,15,17,-1,-1,-1,-1,-1,-1,-1,-1],"loss_changes":[1.1083018E4,2.603623E2,1.0359272E3,1.6210727E2,0E0,0E0,4.4275293E2,1.03299835E2,8.040818E1,1.158252E1,3.031892E2,0E0,0E0,0E0,0E0,0E0,0E0,0E0,0E0],"parents":[2147483647,0,0,1,1,2,2,3,3,6,6,7,7,8,8,9,9,10,10],"right_children":[2,4,6,8,-1,-1,10,12,14,16,18,-1,-1,-1,-1,-1,-1,-1,-1],"split_conditions":[1.6949153E-2,9.245283E-1,4.330127E-1,2E0,-1.1931367E-1,-1.1955167E-1,8.8E1,8.974359E-1,1.3375473E2,7.194245E-3,9.7557E2,-9.34184E-2,2.637213E-2,9.0009905E-2,-1.3944024E-1,7.569321E-2,1.193678E-1,6.5481015E-2,-2.5186178E-1],"split_indices":[9,8,7,5,0,0,11,8,7,10,6,0,0,0,0,0,0,0,0],"split_type":[0,0,0,0,0,0,0,0,0,0,0,0,0,0,0,0,0,0,0],"sum_hessian":[1.10795625E4,5.0005205E3,6.079042E3,6.5829675E2,4.3422236E3,2.2517903E2,5.853863E3,5.4233875E2,1.15957985E2,3.8337163E3,2.0201465E3,4.5739462E2,8.494411E1,9.8846725E1,1.7111258E1,6.8352036E1,3.7653643E3,1.9905404E3,2.9606047E1],"tree_param":{"num_deleted":"0","num_feature":"12","num_nodes":"19","size_leaf_vector":"1"}},{"base_weights":[-1.8618564E-3,-1.0765109E0,8.723167E-1,-4.8154348E-1,-1.1713654E-1,-1.0754828E0,9.539369E-1,-1.0550596E0,-4.756869E-2,8.097025E-2,-1.1703298E-1,-1.07713975E-1,1.0308008E0,4.1945595E-2,-1.21444784E-1,3.8152765E-2,-9.6930005E-2,2.4635768E-2,-1.0463518E-1,1.16158545E-1,7.077675E-2],"categories":[],"categories_nodes":[],"categories_segments":[],"categories_sizes":[],"default_left":[0,0,0,0,0,0,0,0,0,0,0,0,0,0,0,0,0,0,0,0,0],"id":12,"left_children":[1,3,5,7,-1,9,11,13,15,-1,-1,17,19,-1,-1,-1,-1,-1,-1,-1,-1],"loss_changes":[9.712737E3,2.6116553E2,9.074053E2,1.5909274E2,0E0,4.2030487E1,4.4667822E2,6.5228485E1,1.4474368E2,0E0,0E0,1.2334665E2,2.1477295E2,0E0,0E0,0E0,0E0,0E0,0E0,0E0,0E0],"parents":[2147483647,0,0,1,1,2,2,3,3,5,5,6,6,7,7,8,8,11,11,12,12],"right_children":[2,4,6,8,-1,10,12,14,16,-1,-1,18,20,-1,-1,-1,-1,-1,-1,-1,-1],"split_conditions":[1.6949153E-2,9.245283E-1,1.9341234E0,2.008E1,-1.1713654E-1,6.4366665E0,1.6949153E-2,1.4388E1,5.02E1,8.097025E-2,-1.1703298E-1,2.739531E2,1.3E2,4.1945595E-2,-1.21444784E-1,3.8152765E-2,-9.6930005E-2,2.4635768E-2,-1.0463518E-1,1.16158545E-1,7.077675E-2],"split_indices":[9,8,7,7,0,6,10,6,1,0,0,6,11,0,0,0,0,0,0,0,0],"split_type":[0,0,0,0,0,0,0,0,0,0,0,0,0,0,0,0,0,0,0,0,0],"sum_hessian":[1.0336913E4,4.636688E3,5.700225E3,6.3840686E2,3.998281E3,2.287647E2,5.4714604E3,2.743761E2,3.6403076E2,1.0597196E1,2.1816751E2,3.6936472E2,5.1020957E3,2.6606398E1,2.4776968E2,2.487947E2,1.1523605E2,2.6873166E2,1.0063305E2,3.6298882E3,1.4722074E3],"tree_param":{"num_deleted":"0","num_feature":"12","num_nodes":"21","size_leaf_vector":"1"}},{"base_weights":[-2.0763248E-3,-1.0520128E0,8.425844E-1,-4.5197812E-1,-1.1523702E-1,-1.0553275E0,9.208614E-1,-1.16815165E-1,-1.15741655E-1,7.706767E-2,-1.1505915E-1,1.1432147E0,5.35562E-1,1.2955046E-2,-1.3329276E-1,6.2376063E-2,1.1519938E-1,-3.0739212E-3,8.1702024E-2],"categories":[],"categories_nodes":[],"categories_segments":[],"categories_sizes":[],"default_left":[0,0,0,0,0,0,0,0,0,0,0,0,0,0,0,0,0,0,0],"id":13,"left_children":[1,3,5,7,-1,9,11,-1,13,-1,-1,15,17,-1,-1,-1,-1,-1,-1],"loss_changes":[8.535372E3,2.5786475E2,7.933523E2,1.4831284E2,0E0,3.7718018E1,4.3828027E2,0E0,1.2575622E2,0E0,0E0,1.409082E1,2.9911487E2,0E0,0E0,0E0,0E0,0E0,0E0],"parents":[2147483647,0,0,1,1,2,2,3,3,5,5,6,6,8,8,11,11,12,12],"right_children":[2,4,6,8,-1,10,12,-1,14,-1,-1,16,18,-1,-1,-1,-1,-1,-1],"split_conditions":[1.6949153E-2,9.245283E-1,1.9341234E0,8.209563E0,-1.1523702E-1,6.4366665E0,8.8E1,-1.16815165E-1,3.20026E2,7.706767E-2,-1.1505915E-1,7.194245E-3,7.181083E1,1.2955046E-2,-1.3329276E-1,6.2376063E-2,1.1519938E-1,-3.0739212E-3,8.1702024E-2],"split_indices":[9,8,7,7,0,6,11,0,6,0,0,10,7,0,0,0,0,0,0],"split_type":[0,0,0,0,0,0,0,0,0,0,0,0,0,0,0,0,0,0,0],"sum_hessian":[9.622478E3,4.2898413E3,5.332636E3,6.154691E2,3.6743723E3,2.1073189E2,5.1219043E3,1.9584691E2,4.1962222E2,1.0097359E1,2.0063452E2,3.2464414E3,1.875463E3,3.4998535E2,6.963686E1,5.515227E1,3.191289E3,6.2295416E2,1.2525089E3],"tree_param":{"num_deleted":"0","num_feature":"12","num_nodes":"19","size_leaf_vector":"1"}},{"base_weights":[-2.2729465E-3,-1.0288564E0,8.1258416E-1,-4.2292887E-1,-1.135728E-1,-1.1391842E-1,8.8362414E-1,-1.14914335E-1,-1.0625121E-1,1.1249104E0,4.887526E-1,-1.4977475E-1,1.0437978E-2,6.535279E-2,1.1348299E-1,-4.4619087E-2,6.569225E-2],"categories":[],"categories_nodes":[],"categories_segments":[],"categories_sizes":[],"default_left":[0,0,0,0,0,0,0,0,0,0,0,0,0,0,0,0,0],"id":14,"left_children":[1,3,5,7,-1,-1,9,-1,11,13,15,-1,-1,-1,-1,-1,-1],"loss_changes":[7.4998784E3,2.5643213E2,6.940271E2,1.3704227E2,0E0,0E0,4.5899463E2,0E0,1.22206795E2,1.3253662E1,2.8820538E2,0E0,0E0,0E0,0E0,0E0,0E0],"parents":[2147483647,0,0,1,1,2,2,3,3,6,6,8,8,9,9,10,10],"right_children":[2,4,6,8,-1,-1,10,-1,12,14,16,-1,-1,-1,-1,-1,-1],"split_conditions":[1.6949153E-2,9.245283E-1,4.330127E-1,8.209563E0,-1.135728E-1,-1.1391842E-1,8.8E1,-1.14914335E-1,1E0,7.194245E-3,2.5652208E1,-1.4977475E-1,1.0437978E-2,6.535279E-2,1.1348299E-1,-4.4619087E-2,6.569225E-2],"split_indices":[9,8,7,7,0,0,11,0,5,10,7,0,0,0,0,0,0],"split_type":[0,0,0,0,0,0,0,0,0,0,0,0,0,0,0,0,0],"sum_hessian":[8.963582E3,3.9663645E3,4.9972173E3,5.9542926E2,3.3709353E3,1.7497162E2,4.822246E3,1.8000583E2,4.154234E2,2.9920845E3,1.8301614E3,5.3812164E1,3.6161124E2,6.3045E1,2.9290396E3,2.7875653E2,1.5514049E3],"tree_param":{"num_deleted":"0","num_feature":"12","num_nodes":"17","size_leaf_vector":"1"}},{"base_weights":[-2.48482E-3,-1.0066206E0,7.833561E-1,-3.94312E-1,-1.1210938E-1,1.1230028E-1,3.9834878E-1,-1.1323184E-1,-9.707227E-2,-4.6681473E-1,6.589745E-1,1.172982E-1,-3.1724576E-2,4.4770468E-2,-1.7518274E-1,7.102465E-2,-2.5204682E-1],"categories":[],"categories_nodes":[],"categories_segments":[],"categories_sizes":[],"default_left":[0,0,0,0,0,0,0,0,0,0,0,0,0,0,0,0,0],"id":15,"left_children":[1,3,5,7,-1,-1,9,-1,11,13,15,-1,-1,-1,-1,-1,-1],"loss_changes":[6.591102E3,2.5659277E2,6.122876E2,1.2693084E2,0E0,0E0,4.9586603E2,0E0,1.1612425E2,5.9938776E2,2.7718628E2,0E0,0E0,0E0,0E0,0E0,0E0],"parents":[2147483647,0,0,1,1,2,2,3,3,6,6,8,8,9,9,10,10],"right_children":[2,4,6,8,-1,-1,10,-1,12,14,16,-1,-1,-1,-1,-1,-1],"split_conditions":[1.6949153E-2,9.245283E-1,7E0,8.209563E0,-1.1210938E-1,1.1230028E-1,2.5652208E1,-1.1323184E-1,7.7E1,1.15027145E2,9.7557E2,1.172982E-1,-3.1724576E-2,4.4770468E-2,-1.7518274E-1,7.102465E-2,-2.5204682E-1],"split_indices":[9,8,4,7,0,0,7,0,11,6,6,0,0,0,0,0,0],"split_type":[0,0,0,0,0,0,0,0,0,0,0,0,0,0,0,0,0],"sum_hessian":[8.350779E3,3.6660608E3,4.6847188E3,5.781301E2,3.0879307E3,2.4879636E3,2.1967551E3,1.65186E2,4.1294412E2,5.083765E2,1.6883787E3,6.0371002E1,3.5257312E2,2.9738486E2,2.1099164E2,1.6623481E3,2.6030554E1],"tree_param":{"num_deleted":"0","num_feature":"12","num_nodes":"17","size_leaf_vector":"1"}},{"base_weights":[-2.7558652E-3,-9.8593825E-1,7.5656354E-1,-3.679399E-1,-1.10818364E-1,1.1098528E-1,3.7435678E-1,-5.3865373E-1,9.7131276E-1,-4.4161516E-1,6.198363E-1,-6.01856E-3,-1.2955563E-1,1.5206361E-1,-1.4766459E-1,4.1057136E-2,-1.71634E-1,7.02674E-2,-1.0776674E-1],"categories":[],"categories_nodes":[],"categories_segments":[],"categories_sizes":[],"default_left":[0,0,0,0,0,0,0,0,0,0,0,0,0,0,0,0,0,0,0],"id":16,"left_children":[1,3,5,7,-1,-1,9,11,13,15,17,-1,-1,-1,-1,-1,-1,-1,-1],"loss_changes":[5.8001367E3,2.553628E2,5.915132E2,1.2869165E2,0E0,0E0,4.223514E2,1.8022359E2,8.795335E1,5.307198E2,2.2859613E2,0E0,0E0,0E0,0E0,0E0,0E0,0E0,0E0],"parents":[2147483647,0,0,1,1,2,2,3,3,6,6,7,7,8,8,9,9,10,10],"right_children":[2,4,6,8,-1,-1,10,12,14,16,18,-1,-1,-1,-1,-1,-1,-1,-1],"split_conditions":[1.6949153E-2,9.245283E-1,7E0,9.166667E-1,-1.10818364E-1,1.1098528E-1,2.5652208E1,4.682948E1,2.3630947E1,1.15027145E2,7.86002E2,-6.01856E-3,-1.2955563E-1,1.5206361E-1,-1.4766459E-1,4.1057136E-2,-1.71634E-1,7.02674E-2,-1.0776674E-1],"split_indices":[9,8,4,8,0,0,7,2,7,6,6,0,0,0,0,0,0,0,0],"split_type":[0,0,0,0,0,0,0,0,0,0,0,0,0,0,0,0,0,0,0],"sum_hessian":[7.7672607E3,3.3845618E3,4.3826987E3,5.5959576E2,2.8249658E3,2.276517E3,2.1061816E3,4.968592E2,6.273659E1,4.869071E2,1.6192745E3,3.0508337E2,1.917758E2,5.1548004E1,1.1188587E1,2.9222504E2,1.9468207E2,1.5444899E3,7.47847E1],"tree_param":{"num_deleted":"0","num_feature":"12","num_nodes":"19","size_leaf_vector":"1"}},{"base_weights":[-3.0264154E-3,-9.654624E-1,7.30075E-1,-3.4224486E-1,-1.0967616E-1,1.089861E0,3.4162384E-1,-9.519647E-1,1.1141998E-2,-1.023195E-1,1.09684646E-1,-4.2191455E-1,5.703105E-1,5.105687E-2,-1.150253E-1,2.6961258E-2,-1.2811683E-1,3.7163638E-2,-1.6926306E-1,6.1971016E-2,-2.123717E-1],"categories":[],"categories_nodes":[],"categories_segments":[],"categories_sizes":[],"default_left":[0,0,0,0,0,0,0,0,0,0,0,0,0,0,0,0,0,0,0,0,0],"id":17,"left_children":[1,3,5,7,-1,9,11,13,15,-1,-1,17,19,-1,-1,-1,-1,-1,-1,-1,-1],"loss_changes":[5.102801E3,2.5550098E2,5.733718E2,1.1757115E2,0E0,3.257373E1,3.4517328E2,5.864833E1,1.1605138E2,0E0,0E0,4.6031854E2,2.0367911E2,0E0,0E0,0E0,0E0,0E0,0E0,0E0,0E0],"parents":[2147483647,0,0,1,1,2,2,3,3,5,5,6,6,7,7,8,8,11,11,12,12],"right_children":[2,4,6,8,-1,10,12,14,16,-1,-1,18,20,-1,-1,-1,-1,-1,-1,-1,-1],"split_conditions":[1.6949153E-2,9.245283E-1,3.8E1,2.008E1,-1.0967616E-1,7.4478185E-1,2.5652208E1,1.4388E1,3.20026E2,-1.023195E-1,1.09684646E-1,1.15027145E2,9.7557E2,5.105687E-2,-1.150253E-1,2.6961258E-2,-1.2811683E-1,3.7163638E-2,-1.6926306E-1,6.1971016E-2,-2.123717E-1],"split_indices":[9,8,11,7,0,7,7,6,6,0,0,6,6,0,0,0,0,0,0,0,0],"split_type":[0,0,0,0,0,0,0,0,0,0,0,0,0,0,0,0,0,0,0,0,0],"sum_hessian":[7.2302383E3,3.1260093E3,4.104229E3,5.446082E2,2.5814011E3,2.129794E3,1.9744349E3,1.9920828E2,3.4539996E2,6.53817E0,2.1232559E3,4.5487024E2,1.5195647E3,2.359578E1,1.756125E2,2.8849118E2,5.690877E1,2.804434E2,1.7442686E2,1.4929586E3,2.6606024E1],"tree_param":{"num_deleted":"0","num_feature":"12","num_nodes":"21","size_leaf_vector":"1"}},{"base_weights":[-3.4044592E-3,-9.469629E-1,7.041373E-1,-3.2101235E-1,-1.08663E-1,1.0792409E0,3.1975687E-1,-1.10239506E-1,-5.6484163E-2,-1.0057658E-1,1.0862398E0,-8.998666E-2,7.2797287E-1,-1.407023E-1,1.3124718E-2,7.565426E-2,1.0875382E-1,5.8223307E-2,-1.938897E-1,7.800133E-2,-1.9186768E-1],"categories":[],"categories_nodes":[],"categories_segments":[],"categories_sizes":[],"default_left":[0,0,0,0,0,0,0,0,0,0,0,0,0,0,0,0,0,0,0,0,0],"id":18,"left_children":[1,3,5,7,-1,9,11,-1,13,-1,15,17,19,-1,-1,-1,-1,-1,-1,-1,-1],"loss_changes":[4.492919E3,2.5177881E2,5.541731E2,1.0897481E2,0E0,2.9490723E1,3.1801843E2,0E0,1.0037166E2,0E0,7.8125E-3,1.1813225E3,1.3266473E2,0E0,0E0,0E0,0E0,0E0,0E0,0E0,0E0],"parents":[2147483647,0,0,1,1,2,2,3,3,5,5,6,6,8,8,10,10,11,11,12,12],"right_children":[2,4,6,8,-1,10,12,-1,14,-1,16,18,20,-1,-1,-1,-1,-1,-1,-1,-1],"split_conditions":[1.6949153E-2,9.245283E-1,3.8E1,8.209563E0,-1.08663E-1,7.4478185E-1,1.1064918E2,-1.10239506E-1,1E0,-1.0057658E-1,7.194245E-3,1.47985E2,9.7557E2,-1.407023E-1,1.3124718E-2,7.565426E-2,1.0875382E-1,5.8223307E-2,-1.938897E-1,7.800133E-2,-1.9186768E-1],"split_indices":[9,8,11,7,0,7,7,0,5,0,10,6,6,0,0,0,0,0,0,0,0],"split_type":[0,0,0,0,0,0,0,0,0,0,0,0,0,0,0,0,0,0,0,0,0],"sum_hessian":[6.7278867E3,2.8829392E3,3.8449475E3,5.265194E2,2.35642E3,1.9450413E3,1.8999062E3,1.323644E2,3.94155E2,6.029802E0,1.9390115E3,9.4856824E2,9.513381E2,4.7310253E1,3.4684476E2,9.895555E0,1.9291158E3,6.9614984E2,2.524184E2,9.336846E2,1.7653522E1],"tree_param":{"num_deleted":"0","num_feature":"12","num_nodes":"21","size_leaf_vector":"1"}},{"base_weights":[-3.4633898E-3,-9.277526E-1,6.788403E-1,-2.9874912E-1,-1.0776222E-1,1.03037E0,2.5492746E-1,-6.0659206E-1,3.504917E-1,-1.0839503E-1,1.0612322E0,-1.1631805E0,3.8729915E-1,2.241986E-2,-1.2845759E-1,1.0866636E-1,-7.274133E-2,5.465573E-2,1.0755638E-1,3.8088206E-2,-1.4952174E-1,5.025977E-2,-6.505468E-2],"categories":[],"categories_nodes":[],"categories_segments":[],"categories_sizes":[],"default_left":[0,0,0,0,0,0,0,0,0,0,0,0,0,0,0,0,0,0,0,0,0,0,0],"id":19,"left_children":[1,3,5,7,-1,9,11,13,15,-1,17,19,21,-1,-1,-1,-1,-1,-1,-1,-1,-1,-1],"loss_changes":[3.9542383E3,2.507019E2,5.372864E2,1.0289638E2,0E0,1.2980688E2,3.0767026E2,1.968003E2,1.3242448E2,0E0,1.3749756E1,7.233252E1,1.7953702E2,0E0,0E0,0E0,0E0,0E0,0E0,0E0,0E0,0E0,0E0],"parents":[2147483647,0,0,1,1,2,2,3,3,5,5,6,6,7,7,8,8,10,10,11,11,12,12],"right_children":[2,4,6,8,-1,10,12,14,16,-1,18,20,22,-1,-1,-1,-1,-1,-1,-1,-1,-1,-1],"split_conditions":[1.6949153E-2,9.245283E-1,8.5E1,8.695652E-1,-1.0776222E-1,1.7320508E-1,7.754278E0,6.6E1,9.069E1,-1.0839503E-1,7.194245E-3,2.5204287E1,5.807033E2,2.241986E-2,-1.2845759E-1,1.0866636E-1,-7.274133E-2,5.465573E-2,1.0755638E-1,3.8088206E-2,-1.4952174E-1,5.025977E-2,-6.505468E-2],"split_indices":[9,8,11,8,0,7,7,4,6,0,10,6,6,0,0,0,0,0,0,0,0,0,0],"split_type":[0,0,0,0,0,0,0,0,0,0,0,0,0,0,0,0,0,0,0,0,0,0,0],"sum_hessian":[6.268141E3,2.661863E3,3.606278E3,5.127677E2,2.1490955E3,1.9706698E3,1.6356084E3,3.4788214E2,1.6488553E2,2.786061E1,1.9428091E3,1.389747E2,1.4966337E3,1.5662529E2,1.9125685E2,9.796838E1,6.6917145E1,5.369395E1,1.8891152E3,2.4570063E1,1.1440464E2,1.3474551E3,1.4917859E2],"tree_param":{"num_deleted":"0","num_feature":"12","num_nodes":"23","size_leaf_vector":"1"}},{"base_weights":[-3.726839E-3,-9.586039E-1,6.23663E-1,-3.6818257E-1,-1.0713704E0,1.0177708E0,2.0264262E-1,8.692444E-3,-1.0041548E0,-1.6523431E-1,-1.0695919E-1,-1.0570955E-1,1.063094E0,-2.0872223E-1,6.759525E-1,-6.300964E-2,3.660893E-2,-1.6695082E-1,1.1353981E-1,-9.255441E-2,1.0654445E-1,5.4664183E-2,-1.6777813E-1,-3.1969553E-1,7.237398E-2],"categories":[],"categories_nodes":[],"categories_segments":[],"categories_sizes":[],"default_left":[0,0,0,0,0,0,0,0,0,0,0,0,0,0,0,0,0,0,0,0,0,0,0,0,0],"id":20,"left_children":[1,3,5,7,9,11,13,15,17,-1,-1,-1,19,21,23,-1,-1,-1,-1,-1,-1,-1,-1,-1,-1],"loss_changes":[3.5033132E3,1.5398633E2,5.853656E2,8.949813E1,2.4365234E-1,1.7251624E2,3.3260284E2,5.3979755E1,1.9967972E2,0E0,0E0,0E0,9.325439E0,1.01550476E3,1.4930496E2,0E0,0E0,0E0,0E0,0E0,0E0,0E0,0E0,0E0,0E0],"parents":[2147483647,0,0,1,1,2,2,3,3,4,4,5,5,6,6,7,7,8,8,12,12,13,13,14,14],"right_children":[2,4,6,8,10,12,14,16,18,-1,-1,-1,20,22,24,-1,-1,-1,-1,-1,-1,-1,-1,-1,-1],"split_conditions":[1.6949153E-2,9.661017E-1,8.5E1,3.33E2,9.830508E-1,1.6461065E0,1.1064918E2,2.5652208E1,3E0,-1.6523431E-1,-1.0695919E-1,-1.0570955E-1,1E0,1.2000667E2,4.7E1,-6.300964E-2,3.660893E-2,-1.6695082E-1,1.1353981E-1,-9.255441E-2,1.0654445E-1,5.4664183E-2,-1.6777813E-1,-3.1969553E-1,7.237398E-2],"split_indices":[10,8,11,11,8,7,7,7,5,0,0,0,5,6,4,0,0,0,0,0,0,0,0,0,0],"split_type":[0,0,0,0,0,0,0,0,0,0,0,0,0,0,0,0,0,0,0,0,0,0,0,0,0],"sum_hessian":[5.8458223E3,2.3177368E3,3.5280852E3,3.723671E2,1.9453698E3,1.821553E3,1.7065323E3,2.3443063E2,1.3793646E2,3.1048236E0,1.9422649E3,3.8462105E1,1.7830908E3,9.1331104E2,7.9322125E2,8.383183E1,1.505988E2,1.0538406E2,3.2552402E1,1.6413532E0,1.7814495E3,6.035858E2,3.0972522E2,8.864945E0,7.843563E2],"tree_param":{"num_deleted":"0","num_feature":"12","num_nodes":"25","size_leaf_vector":"1"}},{"base_weights":[-3.8065584E-3,-8.958376E-1,6.3166517E-1,-2.8169617E-1,-1.06250584E-1,1.0110275E0,2.2591911E-1,-1.0839919E-1,-4.946799E-2,-1.0658137E-1,1.0418935E0,-2.887132E-1,5.6407624E-1,1.4434153E-2,-1.22515164E-1,5.2437242E-2,1.0589097E-1,5.3334445E-2,-1.9738352E-1,7.250049E-2,-3.9165217E-2],"categories":[],"categories_nodes":[],"categories_segments":[],"categories_sizes":[],"default_left":[0,0,0,0,0,0,0,0,0,0,0,0,0,0,0,0,0,0,0,0,0],"id":21,"left_children":[1,3,5,7,-1,9,11,-1,13,-1,15,17,19,-1,-1,-1,-1,-1,-1,-1,-1],"loss_changes":[3.0944956E3,2.3216101E2,4.9047668E2,9.052008E1,0E0,1.0670569E2,2.6845944E2,0E0,8.631939E1,0E0,1.374292E1,8.4882574E2,1.4343039E2,0E0,0E0,0E0,0E0,0E0,0E0,0E0,0E0],"parents":[2147483647,0,0,1,1,2,2,3,3,5,5,6,6,8,8,10,10,11,11,12,12],"right_children":[2,4,6,8,-1,10,12,-1,14,-1,16,18,20,-1,-1,-1,-1,-1,-1,-1,-1],"split_conditions":[1.6949153E-2,9.245283E-1,8.5E1,8.209563E0,-1.06250584E-1,1.7320508E-1,7.181083E1,-1.0839919E-1,3.20026E2,-1.0658137E-1,7.194245E-3,1.16567406E2,5.807033E2,1.4434153E-2,-1.22515164E-1,5.2437242E-2,1.0589097E-1,5.3334445E-2,-1.9738352E-1,7.250049E-2,-3.9165217E-2],"split_indices":[9,8,11,7,0,7,7,0,6,0,10,6,6,0,0,0,0,0,0,0,0],"split_type":[0,0,0,0,0,0,0,0,0,0,0,0,0,0,0,0,0,0,0,0,0],"sum_hessian":[5.457009E3,2.2700544E3,3.1869543E3,4.8513037E2,1.7849241E3,1.6462554E3,1.540699E3,1.0807791E2,3.7705246E2,2.3617304E1,1.6226381E3,6.109924E2,9.2970667E2,3.244454E2,5.2607056E1,5.266697E1,1.5699711E3,4.111187E2,1.9987366E2,7.959273E2,1.3377934E2],"tree_param":{"num_deleted":"0","num_feature":"12","num_nodes":"21","size_leaf_vector":"1"}},{"base_weights":[-3.8590508E-3,-9.271188E-1,5.802635E-1,-3.379523E-1,-1.0579487E-1,1.0511688E0,2.2172676E-1,-5.308033E-2,-1.1075557E0,-8.40303E-2,1.0571231E-1,-1.4796151E-1,6.670159E-1,-7.799085E-2,3.947703E-2,-1.57685E-1,1.4577563E-1,5.1216524E-2,-1.2728144E-1,-2.6920715E-1,7.0455015E-2],"categories":[],"categories_nodes":[],"categories_segments":[],"categories_sizes":[],"default_left":[0,0,0,0,0,0,0,0,0,0,0,0,0,0,0,0,0,0,0,0,0],"id":22,"left_children":[1,3,5,7,-1,9,11,13,15,-1,-1,17,19,-1,-1,-1,-1,-1,-1,-1,-1],"loss_changes":[2.745285E3,1.5169177E2,5.261815E2,7.884719E1,0E0,1.6064087E1,2.9170486E2,8.6154236E1,1.1929356E2,0E0,0E0,7.1994464E2,1.03230865E2,0E0,0E0,0E0,0E0,0E0,0E0,0E0,0E0],"parents":[2147483647,0,0,1,1,2,2,3,3,5,5,6,6,7,7,8,8,11,11,12,12],"right_children":[2,4,6,8,-1,10,12,14,16,-1,-1,18,20,-1,-1,-1,-1,-1,-1,-1,-1],"split_conditions":[1.6949153E-2,9.661017E-1,4E1,2.739531E2,-1.0579487E-1,1.405E0,1.1064918E2,2.5652208E1,7.7555994E2,-8.40303E-2,1.0571231E-1,1.16567406E2,1.5275252E1,-7.799085E-2,3.947703E-2,-1.57685E-1,1.4577563E-1,5.1216524E-2,-1.2728144E-1,-2.6920715E-1,7.0455015E-2],"split_indices":[10,8,11,6,0,7,7,7,7,0,0,6,2,0,0,0,0,0,0,0,0],"split_type":[0,0,0,0,0,0,0,0,0,0,0,0,0,0,0,0,0,0,0,0,0],"sum_hessian":[5.0884917E3,1.9716033E3,3.1168887E3,3.5890942E2,1.6126938E3,1.3464791E3,1.7704095E3,2.6272836E2,9.618104E1,3.7856672E0,1.3426935E3,9.6768506E2,8.027244E2,9.988349E1,1.6284488E2,8.1632614E1,1.4548425E1,6.1015594E2,3.5752908E2,8.088946E0,7.946355E2],"tree_param":{"num_deleted":"0","num_feature":"12","num_nodes":"21","size_leaf_vector":"1"}},{"base_weights":[-3.8258682E-3,-8.630684E-1,5.876839E-1,-2.6574546E-1,-1.0504289E-1,9.9536157E-1,1.9827259E-1,-8.8765967E-1,1.3077135E-2,-1.0499424E-1,1.026027E0,-9.854603E-2,7.371366E-1,-1.12436965E-1,5.5827536E-2,3.4700993E-2,-7.929289E-2,5.2171554E-2,1.0457071E-1,4.8544724E-2,-5.6373317E-2,-2.911383E-1,7.6245435E-2],"categories":[],"categories_nodes":[],"categories_segments":[],"categories_sizes":[],"default_left":[0,0,0,0,0,0,0,0,0,0,0,0,0,0,0,0,0,0,0,0,0,0,0],"id":23,"left_children":[1,3,5,7,-1,9,11,13,15,-1,17,19,21,-1,-1,-1,-1,-1,-1,-1,-1,-1,-1],"loss_changes":[2.4236758E3,2.1731726E2,4.4818176E2,8.074577E1,0E0,8.760376E1,2.3131937E2,4.9960785E1,8.706285E1,0E0,1.2949097E1,2.5378033E2,4.9665436E1,0E0,0E0,0E0,0E0,0E0,0E0,0E0,0E0,0E0,0E0],"parents":[2147483647,0,0,1,1,2,2,3,3,5,5,6,6,7,7,8,8,10,10,11,11,12,12],"right_children":[2,4,6,8,-1,10,12,14,16,-1,18,20,22,-1,-1,-1,-1,-1,-1,-1,-1,-1,-1],"split_conditions":[1.6949153E-2,9.245283E-1,8.5E1,2.008E1,-1.0504289E-1,1.7320508E-1,2E0,5.47E2,5.02E1,-1.0499424E-1,7.194245E-3,6E0,1.6089039E1,-1.12436965E-1,5.5827536E-2,3.4700993E-2,-7.929289E-2,5.2171554E-2,1.0457071E-1,4.8544724E-2,-5.6373317E-2,-2.911383E-1,7.6245435E-2],"split_indices":[9,8,11,7,0,7,5,4,1,0,10,0,2,0,0,0,0,0,0,0,0,0,0],"split_type":[0,0,0,0,0,0,0,0,0,0,0,0,0,0,0,0,0,0,0,0,0,0,0],"sum_hessian":[4.766667E3,1.9433079E3,2.8233591E3,4.6458493E2,1.478723E3,1.3785687E3,1.4447903E3,1.431361E2,3.2144885E2,1.987264E1,1.358696E3,9.321551E2,5.126352E2,1.2319119E2,1.9944891E1,2.2768652E2,9.376233E1,5.206331E1,1.3066328E3,4.1328098E2,5.188741E2,2.7471828E0,5.0988803E2],"tree_param":{"num_deleted":"0","num_feature":"12","num_nodes":"23","size_leaf_vector":"1"}},{"base_weights":[-3.7704308E-3,-8.993942E-1,5.3569025E-1,-3.3147144E-1,-1.047212E-1,9.877728E-1,1.5708774E-1,1.8085431E-2,-9.2559665E-1,-1.0204317E-1,1.032179E0,-1.0530322E0,2.8059274E-1,1.3872161E-2,-1.6107073E-1,-1.5034722E-1,9.4658546E-2,-8.589157E-2,1.0350668E-1,-1.1842841E-1,1.0465588E-1,-1.451814E-1,3.5897795E-2],"categories":[],"categories_nodes":[],"categories_segments":[],"categories_sizes":[],"default_left":[0,0,0,0,0,0,0,0,0,0,0,0,0,0,0,0,0,0,0,0,0,0,0],"id":24,"left_children":[1,3,5,7,-1,9,11,13,15,-1,17,19,21,-1,-1,-1,-1,-1,-1,-1,-1,-1,-1],"loss_changes":[2.1627559E3,1.4091309E2,4.7800366E2,7.2492966E1,0E0,1.1458179E2,2.2770299E2,4.3587482E1,1.4129764E2,0E0,7.6934814E0,4.01288E1,1.8811511E2,0E0,0E0,0E0,0E0,0E0,0E0,0E0,0E0,0E0,0E0],"parents":[2147483647,0,0,1,1,2,2,3,3,5,5,6,6,7,7,8,8,10,10,11,11,12,12],"right_children":[2,4,6,8,-1,10,12,14,16,-1,18,20,22,-1,-1,-1,-1,-1,-1,-1,-1,-1,-1],"split_conditions":[1.6949153E-2,9.661017E-1,8.5E1,3.33E2,-1.047212E-1,1.6461065E0,7.754278E0,7.03985E2,3E0,-1.0204317E-1,1E0,3E0,1.9139835E1,1.3872161E-2,-1.6107073E-1,-1.5034722E-1,9.4658546E-2,-8.589157E-2,1.0350668E-1,-1.1842841E-1,1.0465588E-1,-1.451814E-1,3.5897795E-2],"split_indices":[10,8,11,11,0,7,7,6,5,0,5,5,2,0,0,0,0,0,0,0,0,0,0],"split_type":[0,0,0,0,0,0,0,0,0,0,0,0,0,0,0,0,0,0,0,0,0,0,0],"sum_hessian":[4.474333E3,1.6816897E3,2.7926433E3,3.4797934E2,1.3337104E3,1.2720736E3,1.5205697E3,2.1969193E2,1.282874E2,2.7044554E1,1.245029E3,1.4012068E2,1.3804491E3,2.0539427E2,1.4297648E1,9.817978E1,3.010763E1,1.4462576E0,1.2435828E3,1.3228696E2,7.8337226E0,5.8998135E1,1.3214509E3],"tree_param":{"num_deleted":"0","num_feature":"12","num_nodes":"23","size_leaf_vector":"1"}},{"base_weights":[-3.9831004E-3,-8.3459616E-1,5.4020745E-1,-2.6230106E-1,-1.0407052E-1,1.04105785E-1,2.2179848E-1,-4.2102605E-1,7.678368E-1,-1.8270701E-1,5.150849E-1,2.352102E-3,-1.2795456E-1,-1.4397292E-1,1.2194451E-1,5.167984E-2,-1.6313653E-1,6.664086E-2,-3.515641E-2],"categories":[],"categories_nodes":[],"categories_segments":[],"categories_sizes":[],"default_left":[0,0,0,0,0,0,0,0,0,0,0,0,0,0,0,0,0,0,0],"id":25,"left_children":[1,3,5,7,-1,-1,9,11,13,15,17,-1,-1,-1,-1,-1,-1,-1,-1],"loss_changes":[1.9011864E3,1.9610913E2,4.0502295E2,7.262234E1,0E0,0E0,1.8454971E2,1.465022E2,6.0963425E1,6.638053E2,1.1847041E2,0E0,0E0,0E0,0E0,0E0,0E0,0E0,0E0],"parents":[2147483647,0,0,1,1,2,2,3,3,6,6,7,7,8,8,9,9,10,10],"right_children":[2,4,6,8,-1,-1,10,12,14,16,18,-1,-1,-1,-1,-1,-1,-1,-1],"split_conditions":[1.6949153E-2,9.245283E-1,7E0,9.166667E-1,-1.0407052E-1,1.04105785E-1,7.181083E1,1.26E2,2.04E2,1.16567406E2,5.89926E2,2.352102E-3,-1.2795456E-1,-1.4397292E-1,1.2194451E-1,5.167984E-2,-1.6313653E-1,6.664086E-2,-3.515641E-2],"split_indices":[9,8,4,8,0,0,7,4,4,6,6,0,0,0,0,0,0,0,0],"split_type":[0,0,0,0,0,0,0,0,0,0,0,0,0,0,0,0,0,0,0],"sum_hessian":[4.2040576E3,1.6638872E3,2.5401704E3,4.411727E2,1.2227145E3,9.863671E2,1.5538033E3,3.8278412E2,5.8388588E1,6.5323206E2,9.005713E2,2.5283638E2,1.2994774E2,9.54456E0,4.884403E1,4.4095422E2,2.1227782E2,7.668963E2,1.33675E2],"tree_param":{"num_deleted":"0","num_feature":"12","num_nodes":"19","size_leaf_vector":"1"}},{"base_weights":[-4.004952E-3,-8.6928165E-1,4.9248347E-1,-3.117392E-1,-1.0387095E-1,9.833212E-1,1.4438425E-1,5.381028E-2,-8.2844096E-1,-1.0038742E-1,1.0243564E0,-1.4521445E0,2.2695655E-1,-3.2479208E-2,5.9243876E-2,-1.2659667E-1,8.4969856E-2,1.03912294E-1,8.968516E-2,-1.223413E-1,-2.6811913E-1,6.467724E-2,-1.5765338E-3],"categories":[],"categories_nodes":[],"categories_segments":[],"categories_sizes":[],"default_left":[0,0,0,0,0,0,0,0,0,0,0,0,0,0,0,0,0,0,0,0,0,0,0],"id":26,"left_children":[1,3,5,7,-1,9,11,13,15,-1,17,19,21,-1,-1,-1,-1,-1,-1,-1,-1,-1,-1],"loss_changes":[1.6938044E3,1.3546643E2,4.279074E2,6.3593525E1,0E0,8.578076E1,1.937132E2,4.056692E1,1.0347517E2,0E0,9.863281E-1,1.703746E1,1.4222522E2,0E0,0E0,0E0,0E0,0E0,0E0,0E0,0E0,0E0,0E0],"parents":[2147483647,0,0,1,1,2,2,3,3,5,5,6,6,7,7,8,8,10,10,11,11,12,12],"right_children":[2,4,6,8,-1,10,12,14,16,-1,18,20,22,-1,-1,-1,-1,-1,-1,-1,-1,-1,-1],"split_conditions":[1.6949153E-2,9.661017E-1,7.7E1,2.88E2,-1.0387095E-1,1.6461065E0,1E0,2.04E2,3E0,-1.0038742E-1,8E0,1.2658228E-2,1.16567406E2,-3.2479208E-2,5.9243876E-2,-1.2659667E-1,8.4969856E-2,1.03912294E-1,8.968516E-2,-1.223413E-1,-2.6811913E-1,6.467724E-2,-1.5765338E-3],"split_indices":[10,8,11,11,0,7,5,11,5,0,1,9,6,0,0,0,0,0,0,0,0,0,0],"split_type":[0,0,0,0,0,0,0,0,0,0,0,0,0,0,0,0,0,0,0,0,0,0,0],"sum_hessian":[3.940753E3,1.4364926E3,2.5042603E3,3.354513E2,1.1010413E3,1.038333E3,1.4659274E3,1.9698604E2,1.3846527E2,2.053287E1,1.0178001E3,7.1273506E1,1.3946538E3,1.1590989E2,8.107614E1,1.1002507E2,2.84402E1,9.057535E2,1.120466E2,6.1772724E1,9.500784E0,5.1032407E2,8.843298E2],"tree_param":{"num_deleted":"0","num_feature":"12","num_nodes":"23","size_leaf_vector":"1"}},{"base_weights":[-4.0729437E-3,-8.0546325E-1,4.9693263E-1,-2.622381E-1,-1.0328223E-1,9.6484137E-1,1.567199E-1,-1.2090842E0,-9.166575E-2,-1.03454076E-1,9.972074E-1,-2.604678E-1,4.8639354E-1,-1.03513815E-1,-1.4454474E-1,5.6242015E-2,-3.6783304E-2,4.852755E-2,1.0247864E-1,3.214737E-2,-1.8576655E-1,6.9466956E-2,-1.2797532E-2],"categories":[],"categories_nodes":[],"categories_segments":[],"categories_sizes":[],"default_left":[0,0,0,0,0,0,0,0,0,0,0,0,0,0,0,0,0,0,0,0,0,0,0],"id":27,"left_children":[1,3,5,7,-1,9,11,13,15,-1,17,19,21,-1,-1,-1,-1,-1,-1,-1,-1,-1,-1],"loss_changes":[1.4963345E3,1.7679431E2,3.649016E2,6.84214E1,0E0,6.3493713E1,1.8290915E2,1.1635361E0,6.5352104E1,0E0,1.292041E1,5.464593E2,9.512369E1,0E0,0E0,0E0,0E0,0E0,0E0,0E0,0E0,0E0,0E0],"parents":[2147483647,0,0,1,1,2,2,3,3,5,5,6,6,7,7,8,8,10,10,11,11,12,12],"right_children":[2,4,6,8,-1,10,12,14,16,-1,18,20,22,-1,-1,-1,-1,-1,-1,-1,-1,-1,-1],"split_conditions":[1.6949153E-2,9.245283E-1,8.5E1,7.368421E-1,-1.0328223E-1,1.7320508E-1,8.516858E1,2.008E1,1.52E2,-1.03454076E-1,7.194245E-3,1.47985E2,4.6664307E2,-1.03513815E-1,-1.4454474E-1,5.6242015E-2,-3.6783304E-2,4.852755E-2,1.0247864E-1,3.214737E-2,-1.8576655E-1,6.9466956E-2,-1.2797532E-2],"split_indices":[9,8,11,8,0,7,7,7,11,0,10,6,6,0,0,0,0,0,0,0,0,0,0],"split_type":[0,0,0,0,0,0,0,0,0,0,0,0,0,0,0,0,0,0,0,0,0,0,0],"sum_hessian":[3.7248538E3,1.4326427E3,2.292211E3,4.2333316E2,1.0093096E3,9.6422974E2,1.3279812E3,6.3691822E1,3.5964136E2,1.4867065E1,9.493627E2,5.8627966E2,7.4170154E2,3.978927E1,2.3902555E1,1.0646018E2,2.5318117E2,4.948061E1,8.998821E2,4.3029846E2,1.559812E2,5.5382104E2,1.8788052E2],"tree_param":{"num_deleted":"0","num_feature":"12","num_nodes":"23","size_leaf_vector":"1"}},{"base_weights":[-4.0728E-3,-8.343247E-1,4.4762275E-1,-2.8252015E-1,-1.0317635E-1,1.0310896E-1,1.599649E-1,2.5095746E-1,-6.5151876E-1,-1.4040555E-1,6.0249674E-1,3.5357684E-2,-2.823938E-1,-8.849255E-2,7.444303E-2,4.2082697E-2,-1.0014806E-1,6.6941775E-2,-1.64106E-1],"categories":[],"categories_nodes":[],"categories_segments":[],"categories_sizes":[],"default_left":[0,0,0,0,0,0,0,0,0,0,0,0,0,0,0,0,0,0,0],"id":28,"left_children":[1,3,5,7,-1,-1,9,11,13,15,17,-1,-1,-1,-1,-1,-1,-1,-1],"loss_changes":[1.3137302E3,1.3418396E2,3.8062335E2,6.446347E1,0E0,0E0,2.0223146E2,4.3368607E1,6.3661324E1,4.3859943E2,9.344577E1,0E0,0E0,0E0,0E0,0E0,0E0,0E0,0E0],"parents":[2147483647,0,0,1,1,2,2,3,3,6,6,7,7,8,8,9,9,10,10],"right_children":[2,4,6,8,-1,-1,10,12,14,16,18,-1,-1,-1,-1,-1,-1,-1,-1],"split_conditions":[1.6949153E-2,9.661017E-1,6.1334367E0,5E0,-1.0317635E-1,1.0310896E-1,1.3126636E2,2.6704517E2,3E0,1.2000667E2,9.7557E2,3.5357684E-2,-2.823938E-1,-8.849255E-2,7.444303E-2,4.2082697E-2,-1.0014806E-1,6.6941775E-2,-1.64106E-1],"split_indices":[10,8,2,0,0,0,7,7,5,6,6,0,0,0,0,0,0,0,0],"split_type":[0,0,0,0,0,0,0,0,0,0,0,0,0,0,0,0,0,0,0],"sum_hessian":[3.5010876E3,1.2333135E3,2.2677742E3,3.2564032E2,9.0767316E2,7.4799817E2,1.519776E3,1.3327649E2,1.9236383E2,9.057065E2,6.140696E2,1.2982869E2,3.4477997E0,1.6512117E2,2.7242666E1,5.486306E2,3.5707587E2,5.9696484E2,1.7104692E1],"tree_param":{"num_deleted":"0","num_feature":"12","num_nodes":"19","size_leaf_vector":"1"}},{"base_weights":[-3.920312E-3,-7.706515E-1,4.570389E-1,-2.4956273E-1,-1.0264199E-1,1.02631725E-1,1.8305607E-1,-5.5434906E-1,2.7831653E-1,5.677613E-1,-1.208247E-1,1.9663887E-2,-1.2544161E-1,-1.4817491E-1,5.772617E-2,-7.9745516E-2,7.2400846E-2,1.8459331E-2,-2.597651E-1],"categories":[],"categories_nodes":[],"categories_segments":[],"categories_sizes":[],"default_left":[0,0,0,0,0,0,0,0,0,0,0,0,0,0,0,0,0,0,0],"id":29,"left_children":[1,3,5,7,-1,-1,9,11,13,15,17,-1,-1,-1,-1,-1,-1,-1,-1],"loss_changes":[1.1699308E3,1.6539178E2,3.222588E2,6.620284E1,0E0,0E0,1.6336719E2,1.3724873E2,8.026959E1,1.3210995E2,5.914553E2,0E0,0E0,0E0,0E0,0E0,0E0,0E0,0E0],"parents":[2147483647,0,0,1,1,2,2,3,3,6,6,7,7,8,8,9,9,10,10],"right_children":[2,4,6,8,-1,-1,10,12,14,16,18,-1,-1,-1,-1,-1,-1,-1,-1],"split_conditions":[1.6949153E-2,9.245283E-1,7E0,8.695652E-1,-1.0264199E-1,1.02631725E-1,6E0,6.6E1,1.13E2,4.691271E0,1.7142858E-1,1.9663887E-2,-1.2544161E-1,-1.4817491E-1,5.772617E-2,-7.9745516E-2,7.2400846E-2,1.8459331E-2,-2.597651E-1],"split_indices":[9,8,4,8,0,0,0,4,4,7,9,0,0,0,0,0,0,0,0],"split_type":[0,0,0,0,0,0,0,0,0,0,0,0,0,0,0,0,0,0,0],"sum_hessian":[3.308206E3,1.2418754E3,2.0663308E3,4.0951895E2,8.323564E2,6.704766E2,1.3958542E3,2.595881E2,1.4993085E2,6.15623E2,7.8023126E2,1.2558621E2,1.3400189E2,2.1193815E1,1.2873703E2,6.2800133E1,5.528228E2,6.9540607E2,8.482521E1],"tree_param":{"num_deleted":"0","num_feature":"12","num_nodes":"19","size_leaf_vector":"1"}},{"base_weights":[-4.144984E-3,-8.050348E-1,4.0907377E-1,-2.7647564E-1,-1.0261866E-1,9.5462215E-1,1.1072999E-1,6.004058E-2,-7.708582E-1,-9.8323844E-2,1.0005181E0,-1.4242913E0,1.8567383E-1,-1.1494445E-1,2.2279974E-2,-4.4269385E-3,-1.6457234E-1,1.025658E-1,8.264074E-2,-1.1895456E-1,-2.527241E-1,-5.188222E-2,3.1167114E-2],"categories":[],"categories_nodes":[],"categories_segments":[],"categories_sizes":[],"default_left":[0,0,0,0,0,0,0,0,0,0,0,0,0,0,0,0,0,0,0,0,0,0,0],"id":30,"left_children":[1,3,5,7,-1,9,11,13,15,-1,17,19,21,-1,-1,-1,-1,-1,-1,-1,-1,-1,-1],"loss_changes":[1.0328147E3,1.2387451E2,3.3496503E2,5.2400322E1,0E0,6.5703E1,1.5349731E2,3.7297592E1,8.0988655E1,0E0,2.2660522E0,1.3077255E1,1.1297014E2,0E0,0E0,0E0,0E0,0E0,0E0,0E0,0E0,0E0,0E0],"parents":[2147483647,0,0,1,1,2,2,3,3,5,5,6,6,7,7,8,8,10,10,11,11,12,12],"right_children":[2,4,6,8,-1,10,12,14,16,-1,18,20,22,-1,-1,-1,-1,-1,-1,-1,-1,-1,-1],"split_conditions":[1.6949153E-2,9.661017E-1,7.7E1,2.88E2,-1.0261866E-1,1.6461065E0,1E0,3.8E1,1.3062E2,-9.8323844E-2,8E0,1.2658228E-2,3E1,-1.1494445E-1,2.2279974E-2,-4.4269385E-3,-1.6457234E-1,1.025658E-1,8.264074E-2,-1.1895456E-1,-2.527241E-1,-5.188222E-2,3.1167114E-2],"split_indices":[10,8,11,11,0,7,5,4,6,0,1,9,1,0,0,0,0,0,0,0,0,0,0],"split_type":[0,0,0,0,0,0,0,0,0,0,0,0,0,0,0,0,0,0,0,0,0,0,0],"sum_hessian":[3.118831E3,1.0611635E3,2.0576675E3,3.136886E2,7.4747485E2,7.2667584E2,1.3309917E3,1.8716663E2,1.2652197E2,1.6339743E1,7.103361E2,6.1119514E1,1.2698722E3,2.148043E1,1.6568619E2,6.969217E1,5.682981E1,6.1643726E2,9.3898865E1,5.210771E1,9.011804E0,1.9218413E2,1.0776881E3],"tree_param":{"num_deleted":"0","num_feature":"12","num_nodes":"23","size_leaf_vector":"1"}},{"base_weights":[-4.372307E-3,2.9927927E-1,-1.02366745E-1,1.0174208E0,6.562402E-2,-1.9023601E-2,1.0221522E-1,-1.4567009E0,1.4181066E-1,-1.1711364E-1,-1.8601765E-1,-5.793896E-3,5.695925E-2],"categories":[],"categories_nodes":[],"categories_segments":[],"categories_sizes":[],"default_left":[0,0,0,0,0,0,0,0,0,0,0,0,0],"id":31,"left_children":[1,3,-1,5,7,-1,-1,9,11,-1,-1,-1,-1],"loss_changes":[9.183408E2,3.8352887E2,0E0,3.4006958E0,2.0038124E2,0E0,0E0,7.309494E0,1.4056122E2,0E0,0E0,0E0,0E0],"parents":[2147483647,0,0,1,1,3,3,4,4,7,7,8,8],"right_children":[2,4,-1,6,8,-1,-1,10,12,-1,-1,-1,-1],"split_conditions":[9.6666664E-1,6.1334367E0,-1.02366745E-1,1.8518519E-2,1E0,-1.9023601E-2,1.0221522E-1,1.2658228E-2,2E0,-1.1711364E-1,-1.8601765E-1,-5.793896E-3,5.695925E-2],"split_indices":[8,2,0,10,5,0,0,9,5,0,0,0,0],"split_type":[0,0,0,0,0,0,0,0,0,0,0,0,0],"sum_hessian":[2.9650842E3,2.2850625E3,6.8002167E2,5.6013336E2,1.7249291E3,2.0329645E0,5.581004E2,8.13482E1,1.6435809E3,4.991961E1,3.1428583E1,1.1210018E3,5.225791E2],"tree_param":{"num_deleted":"0","num_feature":"12","num_nodes":"13","size_leaf_vector":"1"}},{"base_weights":[-4.392655E-3,2.7947628E-1,-1.0212779E-1,1.0142852E0,5.9728388E-2,-1.7608931E-2,1.0194564E-1,-1.4191304E0,1.2921415E-1,-1.152569E-1,-1.779957E-1,4.4194292E-2,-1.0683368E-2],"categories":[],"categories_nodes":[],"categories_segments":[],"categories_sizes":[],"default_left":[0,0,0,0,0,0,0,0,0,0,0,0,0],"id":32,"left_children":[1,3,-1,5,7,-1,-1,9,11,-1,-1,-1,-1],"loss_changes":[8.170148E2,3.5722733E2,0E0,3.3146973E0,1.753233E2,0E0,0E0,5.313263E0,1.2028307E2,0E0,0E0,0E0,0E0],"parents":[2147483647,0,0,1,1,3,3,4,4,7,7,8,8],"right_children":[2,4,-1,6,8,-1,-1,10,12,-1,-1,-1,-1],"split_conditions":[9.6666664E-1,6.1334367E0,-1.0212779E-1,1.8518519E-2,1E0,-1.7608931E-2,1.0194564E-1,1.2658228E-2,6E0,-1.152569E-1,-1.779957E-1,4.4194292E-2,-1.0683368E-2],"split_indices":[8,2,0,10,5,0,0,9,0,0,0,0,0],"split_type":[0,0,0,0,0,0,0,0,0,0,0,0,0],"sum_hessian":[2.8283608E3,2.2116829E3,6.166779E2,5.0831772E2,1.7033651E3,2.0557299E0,5.06262E2,7.557102E1,1.6277942E3,4.5875E1,2.9696022E1,6.9979553E2,9.279986E2],"tree_param":{"num_deleted":"0","num_feature":"12","num_nodes":"13","size_leaf_vector":"1"}},{"base_weights":[-4.4506853E-3,2.5981334E-1,-1.0190783E-1,1.0112809E0,5.4047853E-2,-1.6303713E-2,1.0169361E-1,-1.467464E-1,5.277606E-1,-4.059404E-2,3.9142933E-2,6.488483E-2,9.953387E-3],"categories":[],"categories_nodes":[],"categories_segments":[],"categories_sizes":[],"default_left":[0,0,0,0,0,0,0,0,0,0,0,0,0],"id":33,"left_children":[1,3,-1,5,7,-1,-1,9,11,-1,-1,-1,-1],"loss_changes":[7.268365E2,3.324903E2,0E0,3.2354736E0,1.607709E2,0E0,0E0,1.6577242E2,2.6024445E1,0E0,0E0,0E0,0E0],"parents":[2147483647,0,0,1,1,3,3,4,4,7,7,8,8],"right_children":[2,4,-1,6,8,-1,-1,10,12,-1,-1,-1,-1],"split_conditions":[9.6666664E-1,6.1334367E0,-1.0190783E-1,1.8518519E-2,2E0,-1.6303713E-2,1.0169361E-1,1.3375473E2,7.17E2,-4.059404E-2,3.9142933E-2,6.488483E-2,9.953387E-3],"split_indices":[8,2,0,10,5,0,0,7,11,0,0,0,0],"split_type":[0,0,0,0,0,0,0,0,0,0,0,0,0],"sum_hessian":[2.708778E3,2.1496394E3,5.591387E2,4.61242E2,1.6883973E3,2.0771863E0,4.5916483E2,1.1862625E3,5.0213486E2,8.008203E2,3.854421E2,3.910456E2,1.1108927E2],"tree_param":{"num_deleted":"0","num_feature":"12","num_nodes":"13","size_leaf_vector":"1"}},{"base_weights":[-4.0588286E-3,2.4258003E-1,-1.0170456E-1,1.0083725E0,4.9785506E-2,-1.5098705E-2,1.01456E0,-1.3774104E0,1.11972116E-1,3.2077238E-2,1.0158628E-1,-1.1313363E-1,-1.6906112E-1,5.0528716E-2,-9.907872E-3],"categories":[],"categories_nodes":[],"categories_segments":[],"categories_sizes":[],"default_left":[0,0,0,0,0,0,0,0,0,0,0,0,0,0,0],"id":34,"left_children":[1,3,-1,5,7,-1,9,11,13,-1,-1,-1,-1,-1,-1],"loss_changes":[6.4806244E2,3.079297E2,0E0,3.1624146E0,1.4815048E2,0E0,5.1452637E-2,3.4591064E0,1.3276704E2,0E0,0E0,0E0,0E0,0E0,0E0],"parents":[2147483647,0,0,1,1,3,3,4,4,6,6,7,7,8,8],"right_children":[2,4,-1,6,8,-1,10,12,14,-1,-1,-1,-1,-1,-1],"split_conditions":[9.6666664E-1,6.1334367E0,-1.0170456E-1,1.8518519E-2,1E0,-1.5098705E-2,2.2285721E0,1.2658228E-2,1.15027145E2,3.2077238E-2,1.0158628E-1,-1.1313363E-1,-1.6906112E-1,5.0528716E-2,-9.907872E-3],"split_indices":[8,2,0,10,5,0,7,9,6,0,0,0,0,0,0],"split_type":[0,0,0,0,0,0,0,0,0,0,0,0,0,0,0],"sum_hessian":[2.5919023E3,2.085011E3,5.0689142E2,4.1849423E2,1.6665167E3,2.0973938E0,4.1639685E2,6.869948E1,1.5978173E3,1.2438549E0,4.1515298E2,4.1055428E1,2.7644053E1,5.5748755E2,1.0403297E3],"tree_param":{"num_deleted":"0","num_feature":"12","num_nodes":"15","size_leaf_vector":"1"}},{"base_weights":[-4.066748E-3,2.2486441E-1,-1.01516E-1,1.0030769E0,4.4289604E-2,-5.7518583E-2,1.0097378E-1,-1.4545234E-1,4.9370936E-1,-3.920642E-2,3.6636963E-2,6.674092E-2,1.7703459E-2],"categories":[],"categories_nodes":[],"categories_segments":[],"categories_sizes":[],"default_left":[0,0,0,0,0,0,0,0,0,0,0,0,0],"id":35,"left_children":[1,3,-1,5,7,-1,-1,9,11,-1,-1,-1,-1],"loss_changes":[5.7732263E2,2.8574222E2,0E0,4.606781E0,1.4092061E2,0E0,0E0,1.468337E2,2.6865746E1,0E0,0E0,0E0,0E0],"parents":[2147483647,0,0,1,1,3,3,4,4,7,7,8,8],"right_children":[2,4,-1,6,8,-1,-1,10,12,-1,-1,-1,-1],"split_conditions":[9.6666664E-1,2.9E1,-1.01516E-1,7.4478185E-1,2E0,-5.7518583E-2,1.0097378E-1,1.3375473E2,4.74E2,-3.920642E-2,3.6636963E-2,6.674092E-2,1.7703459E-2],"split_indices":[8,11,0,7,5,0,0,7,11,0,0,0,0],"split_type":[0,0,0,0,0,0,0,0,0,0,0,0,0],"sum_hessian":[2.4921633E3,2.0326985E3,4.5946484E2,3.8197382E2,1.6507247E3,1.246577E0,3.8072723E2,1.161165E3,4.895596E2,7.8375934E2,3.774058E2,3.154332E2,1.7412637E2],"tree_param":{"num_deleted":"0","num_feature":"12","num_nodes":"13","size_leaf_vector":"1"}},{"base_weights":[-3.6816765E-3,2.0939559E-1,-1.01340294E-1,1.0030715E0,4.1386325E-2,-1.8742878E-2,1.0105809E0,-9.570229E-1,1.2319345E-1,2.8420234E-2,1.0121284E-1,4.6397362E-2,-1.07417874E-1,6.4195715E-2,-7.7934824E-3],"categories":[],"categories_nodes":[],"categories_segments":[],"categories_sizes":[],"default_left":[0,0,0,0,0,0,0,0,0,0,0,0,0,0,0],"id":36,"left_children":[1,3,-1,5,7,-1,9,11,13,-1,-1,-1,-1,-1,-1],"loss_changes":[5.153919E2,2.6372836E2,0E0,3.2784424E0,1.3354257E2,0E0,9.854126E-2,2.1112938E1,1.5767741E2,0E0,0E0,0E0,0E0,0E0,0E0],"parents":[2147483647,0,0,1,1,3,3,4,4,6,6,7,7,8,8],"right_children":[2,4,-1,6,8,-1,10,12,14,-1,-1,-1,-1,-1,-1],"split_conditions":[9.6666664E-1,6.1334367E0,-1.01340294E-1,1.8518519E-2,4.391928E0,-1.8742878E-2,2.2285721E0,6.4366665E0,5E0,2.8420234E-2,1.0121284E-1,4.6397362E-2,-1.07417874E-1,6.4195715E-2,-7.7934824E-3],"split_indices":[8,2,0,10,7,0,7,6,0,0,0,0,0,0,0],"split_type":[0,0,0,0,0,0,0,0,0,0,0,0,0,0,0],"sum_hessian":[2.3935295E3,1.9771024E3,4.1642706E2,3.4453732E2,1.6325651E3,2.0094495E0,3.425279E2,1.2282746E2,1.5097377E3,1.1207135E0,3.4140717E2,9.129872E0,1.1369759E2,4.2118835E2,1.0885493E3],"tree_param":{"num_deleted":"0","num_feature":"12","num_nodes":"15","size_leaf_vector":"1"}},{"base_weights":[-3.567064E-3,1.947074E-1,-1.01175785E-1,9.978627E-1,3.718167E-2,-5.3886928E-2,1.00491755E-1,-1.3391943E0,9.2081785E-2,-1.1141093E-1,-1.608223E-1,4.79523E-2,-1.2254431E-2],"categories":[],"categories_nodes":[],"categories_segments":[],"categories_sizes":[],"default_left":[0,0,0,0,0,0,0,0,0,0,0,0,0],"id":37,"left_children":[1,3,-1,5,7,-1,-1,9,11,-1,-1,-1,-1],"loss_changes":[4.6024457E2,2.433858E2,0E0,3.9614258E0,1.2174795E2,0E0,0E0,1.950737E0,1.2884683E2,0E0,0E0,0E0,0E0],"parents":[2147483647,0,0,1,1,3,3,4,4,7,7,8,8],"right_children":[2,4,-1,6,8,-1,-1,10,12,-1,-1,-1,-1],"split_conditions":[9.6666664E-1,2.9E1,-1.01175785E-1,7.4478185E-1,1E0,-5.3886928E-2,1.00491755E-1,1.2658228E-2,1.16567406E2,-1.1141093E-1,-1.608223E-1,4.79523E-2,-1.2254431E-2],"split_indices":[8,11,0,7,5,0,0,9,6,0,0,0,0],"split_type":[0,0,0,0,0,0,0,0,0,0,0,0,0],"sum_hessian":[2.300406E3,1.923024E3,3.77382E2,3.1444925E2,1.6085748E3,1.0924978E0,3.1335675E2,6.080354E1,1.5477712E3,3.5904766E1,2.4898775E1,5.5131244E2,9.964588E2],"tree_param":{"num_deleted":"0","num_feature":"12","num_nodes":"13","size_leaf_vector":"1"}},{"base_weights":[-3.5886967E-3,1.79741E-1,-1.0102099E-1,9.981641E-1,3.379481E-2,-2.0994743E-2,1.0072299E0,-1.8369074E-1,3.9238882E-1,2.4870088E-2,1.00908235E-1,2.5763122E-2,-1.0736799E-1,4.6035025E-2,-1.545686E-1],"categories":[],"categories_nodes":[],"categories_segments":[],"categories_sizes":[],"default_left":[0,0,0,0,0,0,0,0,0,0,0,0,0,0,0],"id":38,"left_children":[1,3,-1,5,7,-1,9,11,13,-1,-1,-1,-1,-1,-1],"loss_changes":[4.1081754E2,2.2490361E2,0E0,3.33255E0,1.2479321E2,0E0,1.46698E-1,3.915357E2,8.027563E1,0E0,0E0,0E0,0E0,0E0,0E0],"parents":[2147483647,0,0,1,1,3,3,4,4,6,6,7,7,8,8],"right_children":[2,4,-1,6,8,-1,10,12,14,-1,-1,-1,-1,-1,-1],"split_conditions":[9.6666664E-1,6.1334367E0,-1.0102099E-1,1.8518519E-2,1.3126636E2,-2.0994743E-2,2.2285721E0,1.47985E2,9.7557E2,2.4870088E-2,1.00908235E-1,2.5763122E-2,-1.0736799E-1,4.6035025E-2,-1.545686E-1],"split_indices":[8,2,0,10,7,0,7,6,6,0,0,0,0,0,0],"split_type":[0,0,0,0,0,0,0,0,0,0,0,0,0,0,0],"sum_hessian":[2.2241438E3,1.8821761E3,3.4196762E2,2.8396198E2,1.5982141E3,1.9499819E0,2.82012E2,9.9514886E2,6.030653E2,1.0165335E0,2.8099545E2,6.6573773E2,3.2941113E2,5.83371E2,1.9694288E1],"tree_param":{"num_deleted":"0","num_feature":"12","num_nodes":"15","size_leaf_vector":"1"}},{"base_weights":[-3.4440488E-3,1.6724516E-1,-1.008745E-1,9.9552035E-1,3.0984482E-2,-1.9433742E-2,1.005434E0,-7.8619087E-1,1.1949722E-1,2.3767253E-2,1.0075208E-1,2.291933E-2,-1.18729845E-1,6.259457E-2,-6.706565E-3],"categories":[],"categories_nodes":[],"categories_segments":[],"categories_sizes":[],"default_left":[0,0,0,0,0,0,0,0,0,0,0,0,0,0,0],"id":39,"left_children":[1,3,-1,5,7,-1,9,11,13,-1,-1,-1,-1,-1,-1],"loss_changes":[3.6749866E2,2.066001E2,0E0,3.2459412E0,1.1388613E2,0E0,1.7172241E-1,6.294538E1,1.3424243E2,0E0,0E0,0E0,0E0,0E0,0E0],"parents":[2147483647,0,0,1,1,3,3,4,4,6,6,7,7,8,8],"right_children":[2,4,-1,6,8,-1,10,12,14,-1,-1,-1,-1,-1,-1],"split_conditions":[9.6666664E-1,6.1334367E0,-1.008745E-1,1.8518519E-2,7.754278E0,-1.9433742E-2,2.2285721E0,2.5204287E1,5E0,2.3767253E-2,1.0075208E-1,2.291933E-2,-1.18729845E-1,6.259457E-2,-6.706565E-3],"split_indices":[8,2,0,10,7,0,7,6,0,0,0,0,0,0,0],"split_type":[0,0,0,0,0,0,0,0,0,0,0,0,0,0,0],"sum_hessian":[2.1396921E3,1.8298389E3,3.098532E2,2.5761182E2,1.572227E3,1.9749296E0,2.5563689E2,1.5288315E2,1.419344E3,1.0043697E0,2.5463252E2,4.341325E1,1.094699E2,3.81462E2,1.037882E3],"tree_param":{"num_deleted":"0","num_feature":"12","num_nodes":"15","size_leaf_vector":"1"}},{"base_weights":[-3.3618065E-3,-6.6108567E-1,2.384712E-1,-3.0647004E-1,-1.00731134E-1,8.515586E-1,6.028509E-2,-3.3234872E-2,-1.0110488E0,-9.551418E-2,9.239419E-1,-7.1805084E-1,1.8815854E-1,-6.510178E-2,2.9000914E-2,-1.4528468E-1,1.22156076E-1,4.9048975E-2,9.808975E-2,-4.113453E-2,-2.2242811E-1,-1.1445955E-1,2.7406057E-2],"categories":[],"categories_nodes":[],"categories_segments":[],"categories_sizes":[],"default_left":[0,0,0,0,0,0,0,0,0,0,0,0,0,0,0,0,0,0,0,0,0,0,0],"id":40,"left_children":[1,3,5,7,-1,9,11,13,15,-1,17,19,21,-1,-1,-1,-1,-1,-1,-1,-1,-1,-1],"loss_changes":[3.2893686E2,6.794972E1,1.6513248E2,5.311744E1,0E0,4.5401566E1,1.1684649E2,4.0122246E1,7.783733E1,0E0,7.611908E0,7.562273E1,1.15711975E2,0E0,0E0,0E0,0E0,0E0,0E0,0E0,0E0,0E0,0E0],"parents":[2147483647,0,0,1,1,2,2,3,3,5,5,6,6,7,7,8,8,10,10,11,11,12,12],"right_children":[2,4,6,8,-1,10,12,14,16,-1,18,20,22,-1,-1,-1,-1,-1,-1,-1,-1,-1,-1],"split_conditions":[1.6949153E-2,9.661017E-1,8.5E1,2.739531E2,-1.00731134E-1,1.6461065E0,3E1,2.5652208E1,7.7555994E2,-9.551418E-2,1.2658228E-2,4.6664307E2,7.754278E0,-6.510178E-2,2.9000914E-2,-1.4528468E-1,1.22156076E-1,4.9048975E-2,9.808975E-2,-4.113453E-2,-2.2242811E-1,-1.1445955E-1,2.7406057E-2],"split_indices":[10,8,11,6,0,7,1,7,7,0,9,6,7,0,0,0,0,0,0,0,0,0,0],"split_type":[0,0,0,0,0,0,0,0,0,0,0,0,0,0,0,0,0,0,0,0,0,0,0],"sum_hessian":[2.0660222E3,5.5495447E2,1.5110676E3,2.750868E2,2.7986768E2,3.3942484E2,1.1716428E3,1.9897255E2,7.611425E1,1.2605046E1,3.268198E2,1.6467699E2,1.0069658E3,6.799902E1,1.3097353E2,6.383214E1,1.2282107E1,3.9072895E1,2.8774692E2,1.3787527E2,2.6801706E1,6.0227234E1,9.467386E2],"tree_param":{"num_deleted":"0","num_feature":"12","num_nodes":"23","size_leaf_vector":"1"}},{"base_weights":[-3.50598E-3,-5.858683E-1,2.52311E-1,-2.6862195E-1,-1.0055377E-1,1.0035107E-1,1.190035E-1,-6.0895723E-1,2.4392872E-1,4.963309E-1,-1.4208487E-1,1.1756269E-2,-1.2929687E-1,-1.4039654E-1,4.8870437E-2,-1.04055464E-1,5.8429886E-2,1.3484019E-2,-2.3770733E-1],"categories":[],"categories_nodes":[],"categories_segments":[],"categories_sizes":[],"default_left":[0,0,0,0,0,0,0,0,0,0,0,0,0,0,0,0,0,0,0],"id":41,"left_children":[1,3,5,7,-1,-1,9,11,13,15,17,-1,-1,-1,-1,-1,-1,-1,-1],"loss_changes":[2.969775E2,8.073195E1,1.385786E2,6.0826706E1,0E0,0E0,1.1606543E2,1.0417733E2,5.6963047E1,6.573839E1,4.315121E2,0E0,0E0,0E0,0E0,0E0,0E0,0E0,0E0],"parents":[2147483647,0,0,1,1,2,2,3,3,6,6,7,7,8,8,9,9,10,10],"right_children":[2,4,6,8,-1,-1,10,12,14,16,18,-1,-1,-1,-1,-1,-1,-1,-1],"split_conditions":[1.6949153E-2,9.245283E-1,7E0,8.695652E-1,-1.0055377E-1,1.0035107E-1,6E0,1.52E2,1.13E2,2.5403413E-1,1.7142858E-1,1.1756269E-2,-1.2929687E-1,-1.4039654E-1,4.8870437E-2,-1.04055464E-1,5.8429886E-2,1.3484019E-2,-2.3770733E-1],"split_indices":[9,8,4,8,0,0,0,11,4,7,9,0,0,0,0,0,0,0,0],"split_type":[0,0,0,0,0,0,0,0,0,0,0,0,0,0,0,0,0,0,0],"sum_hessian":[1.9914376E3,6.0740405E2,1.3840336E3,3.468473E2,2.6055676E2,2.0760919E2,1.1764244E3,2.0832845E2,1.3851884E2,4.8074548E2,6.9567896E2,1.0142665E2,1.0690179E2,1.7301935E1,1.212169E2,2.544083E1,4.5530466E2,6.198201E2,7.585881E1],"tree_param":{"num_deleted":"0","num_feature":"12","num_nodes":"19","size_leaf_vector":"1"}},{"base_weights":[-3.907307E-3,1.3410747E-1,-1.0050911E-1,1.001664E-1,2.4064E-2,-1.3136024E0,7.3055595E-2,-1.1022135E-1,-1.5450977E-1,2.1805052E-2,-4.6761494E-2],"categories":[],"categories_nodes":[],"categories_segments":[],"categories_sizes":[],"default_left":[0,0,0,0,0,0,0,0,0,0,0],"id":42,"left_children":[1,3,-1,-1,5,7,9,-1,-1,-1,-1],"loss_changes":[2.6420895E2,1.6040793E2,0E0,0E0,9.78947E1,8.796768E-1,1.1303304E2,0E0,0E0,0E0,0E0],"parents":[2147483647,0,0,1,1,4,4,5,5,6,6],"right_children":[2,4,-1,-1,6,8,10,-1,-1,-1,-1],"split_conditions":[9.6666664E-1,7E0,-1.0050911E-1,1.001664E-1,1E0,1.2658228E-2,3.7685E2,-1.1022135E-1,-1.5450977E-1,2.1805052E-2,-4.6761494E-2],"split_indices":[8,4,0,0,5,9,6,0,0,0,0],"split_type":[0,0,0,0,0,0,0,0,0,0,0],"sum_hessian":[1.9101136E3,1.679463E3,2.306506E2,1.8813657E2,1.4913265E3,5.1777622E1,1.4395488E3,3.0075546E1,2.1702074E1,1.1356038E3,3.039451E2],"tree_param":{"num_deleted":"0","num_feature":"12","num_nodes":"11","size_leaf_vector":"1"}},{"base_weights":[-3.8821655E-3,1.23123534E-1,-1.0038191E-1,1.0002836E-1,2.1597898E-2,-2.0202753E-1,3.2729945E-1,2.1256037E-2,-1.1588875E-1,6.10446E-2,-1.0840898E-2],"categories":[],"categories_nodes":[],"categories_segments":[],"categories_sizes":[],"default_left":[0,0,0,0,0,0,0,0,0,0,0],"id":43,"left_children":[1,3,-1,-1,5,7,9,-1,-1,-1,-1],"loss_changes":[2.365913E2,1.4718777E2,0E0,0E0,1.0141871E2,3.401596E2,7.738494E1,0E0,0E0,0E0,0E0],"parents":[2147483647,0,0,1,1,4,4,5,5,6,6],"right_children":[2,4,-1,-1,6,8,10,-1,-1,-1,-1],"split_conditions":[9.6666664E-1,7E0,-1.0038191E-1,1.0002836E-1,1.1252125E2,1.47985E2,3.7685E2,2.1256037E-2,-1.1588875E-1,6.10446E-2,-1.0840898E-2],"split_indices":[8,4,0,0,7,6,6,0,0,0,0],"split_type":[0,0,0,0,0,0,0,0,0,0,0],"sum_hessian":[1.8609843E3,1.6520306E3,2.0895367E2,1.7045789E2,1.4815728E3,8.558467E2,6.25726E2,5.976674E2,2.5817926E2,3.7901852E2,2.4670747E2],"tree_param":{"num_deleted":"0","num_feature":"12","num_nodes":"11","size_leaf_vector":"1"}},{"base_weights":[-3.5681603E-3,1.141863E-1,-1.0025708E-1,9.840076E-1,1.8141408E-2,-3.41024E-2,9.990199E-2,-1.7271821E-1,3.328338E-1,2.0183798E-2,-9.3604594E-2,3.9260156E-2,-1.4205728E-1],"categories":[],"categories_nodes":[],"categories_segments":[],"categories_sizes":[],"default_left":[0,0,0,0,0,0,0,0,0,0,0,0,0],"id":44,"left_children":[1,3,-1,5,7,-1,-1,9,11,-1,-1,-1,-1],"loss_changes":[2.123005E2,1.3485564E2,0E0,3.533722E0,8.7443085E1,0E0,0E0,2.5931046E2,5.8155716E1,0E0,0E0,0E0,0E0],"parents":[2147483647,0,0,1,1,3,3,4,4,7,7,8,8],"right_children":[2,4,-1,6,8,-1,-1,10,12,-1,-1,-1,-1],"split_conditions":[9.6666664E-1,6.1334367E0,-1.0025708E-1,1.8518519E-2,1.3126636E2,-3.41024E-2,9.990199E-2,1.47985E2,9.7557E2,2.0183798E-2,-9.3604594E-2,3.9260156E-2,-1.4205728E-1],"split_indices":[8,2,0,10,7,0,0,6,6,0,0,0,0],"split_type":[0,0,0,0,0,0,0,0,0,0,0,0,0],"sum_hessian":[1.8027352E3,1.6134413E3,1.8929388E2,1.5951985E2,1.4539214E3,1.5437868E0,1.5797606E2,9.0530743E2,5.48614E2,6.078017E2,2.9750574E2,5.312805E2,1.7333479E1],"tree_param":{"num_deleted":"0","num_feature":"12","num_nodes":"13","size_leaf_vector":"1"}},{"base_weights":[-3.4073426E-3,-5.2261484E-1,2.0658833E-1,-2.6005498E-1,-1.0015946E-1,5.5260724E-1,-4.39202E-2,-5.7504785E-1,1.9737206E-1,-1.0350054E-1,6.233502E-1,1.9237898E-1,-2.2071905E0,1.3813351E-2,-1.2692252E-1,6.69665E-2,-5.8072086E-2,7.680195E-3,7.997371E-2,2.7053744E-2,-3.7017667E-1,-1.8126337E-1,-3.2944754E-1],"categories":[],"categories_nodes":[],"categories_segments":[],"categories_sizes":[],"default_left":[0,0,0,0,0,0,0,0,0,0,0,0,0,0,0,0,0,0,0,0,0,0,0],"id":45,"left_children":[1,3,5,7,-1,9,11,13,15,-1,17,19,21,-1,-1,-1,-1,-1,-1,-1,-1,-1,-1],"loss_changes":[1.9106369E2,6.3204285E1,1.0817903E2,4.727507E1,0E0,5.9503036E1,3.7086752E2,9.626498E1,4.971438E1,0E0,4.8364532E1,2.0012607E2,2.4677399E1,0E0,0E0,0E0,0E0,0E0,0E0,0E0,0E0,0E0,0E0],"parents":[2147483647,0,0,1,1,2,2,3,3,5,5,6,6,7,7,8,8,10,10,11,11,12,12],"right_children":[2,4,6,8,-1,10,12,14,16,-1,18,20,22,-1,-1,-1,-1,-1,-1,-1,-1,-1,-1],"split_conditions":[1.6949153E-2,9.245283E-1,6E0,8.695652E-1,-1.0015946E-1,2.5403413E-1,1.7142858E-1,6.6E1,9.069E1,-1.0350054E-1,7.194245E-3,1.7391305E-1,1.1064918E2,1.3813351E-2,-1.2692252E-1,6.69665E-2,-5.8072086E-2,7.680195E-3,7.997371E-2,2.7053744E-2,-3.7017667E-1,-1.8126337E-1,-3.2944754E-1],"split_indices":[9,8,0,8,0,7,9,4,6,0,10,10,7,0,0,0,0,0,0,0,0,0,0],"split_type":[0,0,0,0,0,0,0,0,0,0,0,0,0,0,0,0,0,0,0,0,0,0,0],"sum_hessian":[1.750384E3,5.036463E2,1.2467378E3,3.2631485E2,1.7733142E2,5.230545E2,7.236833E2,1.9309137E2,1.332235E2,2.173128E1,5.013232E2,6.5323944E2,7.044383E1,9.5637085E1,9.745428E1,8.2989334E1,5.023416E1,1.2266664E2,3.786566E2,6.412986E2,1.1940824E1,5.3644344E1,1.6799488E1],"tree_param":{"num_deleted":"0","num_feature":"12","num_nodes":"23","size_leaf_vector":"1"}},{"base_weights":[-3.9836E-3,-5.5876464E-1,1.7935495E-1,-2.9457134E-1,-1.0004932E-1,9.001435E-1,6.671554E-2,5.963405E-2,-8.1442076E-1,-8.5122846E-2,9.565218E-1,-2.0362683E-1,3.9206612E-1,1.6216E-2,-1.5511587E-1,-1.2437E-1,5.405307E-2,9.692275E-2,3.6201835E-2,1.9326536E-2,-1.3128242E-1,5.7591658E-2,-3.7011057E-2],"categories":[],"categories_nodes":[],"categories_segments":[],"categories_sizes":[],"default_left":[0,0,0,0,0,0,0,0,0,0,0,0,0,0,0,0,0,0,0,0,0,0,0],"id":46,"left_children":[1,3,5,7,-1,9,11,13,15,-1,17,19,21,-1,-1,-1,-1,-1,-1,-1,-1,-1,-1],"loss_changes":[1.71581E2,4.860385E1,1.0288194E2,4.8587677E1,0E0,1.7726562E1,9.662428E1,2.6297766E1,6.284736E1,0E0,9.061127E-1,2.6446332E2,7.0063995E1,0E0,0E0,0E0,0E0,0E0,0E0,0E0,0E0,0E0,0E0],"parents":[2147483647,0,0,1,1,2,2,3,3,5,5,6,6,7,7,8,8,10,10,11,11,12,12],"right_children":[2,4,6,8,-1,10,12,14,16,-1,18,20,22,-1,-1,-1,-1,-1,-1,-1,-1,-1,-1],"split_conditions":[3.2258064E-2,9.6666664E-1,6.1E1,2.88E2,-1.0004932E-1,1.405E0,1.1064918E2,7.03985E2,3E0,-8.5122846E-2,1.8737663E1,1.47985E2,5.2473334E2,1.6216E-2,-1.5511587E-1,-1.2437E-1,5.405307E-2,9.692275E-2,3.6201835E-2,1.9326536E-2,-1.3128242E-1,5.7591658E-2,-3.7011057E-2],"split_indices":[10,8,11,11,0,7,7,6,5,0,2,6,6,0,0,0,0,0,0,0,0,0,0],"split_type":[0,0,0,0,0,0,0,0,0,0,0,0,0,0,0,0,0,0,0,0,0,0,0],"sum_hessian":[1.6849319E3,4.180048E2,1.266927E3,2.626083E2,1.5539648E2,1.7028275E2,1.0966443E3,1.5671443E2,1.0589389E2,4.8709154E0,1.6541183E2,5.9916034E2,4.9748395E2,1.4818207E2,8.532367E0,8.047857E1,2.5415321E1,1.6133353E2,4.0783095E0,4.418748E2,1.5728555E2,4.0100003E2,9.648392E1],"tree_param":{"num_deleted":"0","num_feature":"12","num_nodes":"23","size_leaf_vector":"1"}},{"base_weights":[-3.9042693E-3,9.0907246E-2,-9.992408E-2,9.955446E-2,1.028863E-2,-1.299035E0,5.6381654E-2,-1.0908257E-1,-1.5063465E-1,3.5526928E-2,-1.4469174E-2],"categories":[],"categories_nodes":[],"categories_segments":[],"categories_sizes":[],"default_left":[0,0,0,0,0,0,0,0,0,0,0],"id":47,"left_children":[1,3,-1,-1,5,7,9,-1,-1,-1,-1],"loss_changes":[1.5393127E2,1.086076E2,0E0,0E0,8.266178E1,3.673706E-1,7.955539E1,0E0,0E0,0E0,0E0],"parents":[2147483647,0,0,1,1,4,4,5,5,6,6],"right_children":[2,4,-1,-1,6,8,10,-1,-1,-1,-1],"split_conditions":[9.6666664E-1,7E0,-9.992408E-2,9.955446E-2,1E0,1.2658228E-2,6E0,-1.0908257E-1,-1.5063465E-1,3.5526928E-2,-1.4469174E-2],"split_indices":[8,4,0,0,5,9,0,0,0,0,0],"split_type":[0,0,0,0,0,0,0,0,0,0,0],"sum_hessian":[1.6291947E3,1.4883313E3,1.4086343E2,1.20854164E2,1.367477E3,4.5578762E1,1.3218983E3,2.5864262E1,1.97145E1,5.3133026E2,7.905681E2],"tree_param":{"num_deleted":"0","num_feature":"12","num_nodes":"11","size_leaf_vector":"1"}},{"base_weights":[-3.809646E-3,-4.7901434E-1,1.783428E-1,-2.5307557E-1,-9.985826E-2,6.1664504E-1,2.0460298E-3,-5.733666E-1,1.9349186E-1,-1.0225306E-1,7.034308E-1,1.5394627E-1,-1.9389952E0,8.779484E-3,-1.2653813E-1,-1.3757014E-1,4.0862214E-2,2.046743E-2,9.0515755E-2,2.1086244E-2,-3.1063297E-1,-1.6635369E-1,-2.7079567E-1],"categories":[],"categories_nodes":[],"categories_segments":[],"categories_sizes":[],"default_left":[0,0,0,0,0,0,0,0,0,0,0,0,0,0,0,0,0,0,0,0,0,0,0],"id":48,"left_children":[1,3,5,7,-1,9,11,13,15,-1,17,19,21,-1,-1,-1,-1,-1,-1,-1,-1,-1,-1],"loss_changes":[1.3837767E2,5.174871E1,8.929915E1,4.4460026E1,0E0,4.7877472E1,2.4359663E2,8.283936E1,4.453255E1,0E0,3.1550339E1,1.4283504E2,8.196304E0,0E0,0E0,0E0,0E0,0E0,0E0,0E0,0E0,0E0,0E0],"parents":[2147483647,0,0,1,1,2,2,3,3,5,5,6,6,7,7,8,8,10,10,11,11,12,12],"right_children":[2,4,6,8,-1,10,12,14,16,-1,18,20,22,-1,-1,-1,-1,-1,-1,-1,-1,-1,-1],"split_conditions":[1.6949153E-2,9.245283E-1,5E0,8.695652E-1,-9.985826E-2,2.5403413E-1,2.0689656E-1,1.52E2,1.13E2,-1.0225306E-1,7.194245E-3,2.1428572E-1,1.1064918E2,8.779484E-3,-1.2653813E-1,-1.3757014E-1,4.0862214E-2,2.046743E-2,9.0515755E-2,2.1086244E-2,-3.1063297E-1,-1.6635369E-1,-2.7079567E-1],"split_indices":[9,8,0,8,0,7,9,11,4,0,10,10,7,0,0,0,0,0,0,0,0,0,0],"split_type":[0,0,0,0,0,0,0,0,0,0,0,0,0,0,0,0,0,0,0,0,0,0,0],"sum_hessian":[1.5966516E3,4.4197766E2,1.1546741E3,3.090651E2,1.3291254E2,3.3049997E2,8.24174E2,1.7981364E2,1.2925146E2,1.6076218E1,3.1442377E2,7.652115E2,5.8962536E1,9.240327E1,8.741038E1,1.4933015E1,1.1431845E2,9.112867E1,2.2329509E2,7.5300134E2,1.2210172E1,4.574062E1,1.3221917E1],"tree_param":{"num_deleted":"0","num_feature":"12","num_nodes":"23","size_leaf_vector":"1"}},{"base_weights":[-4.5096534E-3,-5.127339E-1,1.5467714E-1,-2.8753248E-1,-9.970366E-2,9.9266075E-2,7.194406E-2,6.258112E-3,-8.156537E-1,-8.9206034E-1,1.4626062E-1,-6.0871597E-2,2.4111167E-2,-1.3114133E-1,5.0101258E-2,-2.6862998E-3,-1.2089081E-1,2.4154881E-2,-5.6209445E-2],"categories":[],"categories_nodes":[],"categories_segments":[],"categories_sizes":[],"default_left":[0,0,0,0,0,0,0,0,0,0,0,0,0,0,0,0,0,0,0],"id":49,"left_children":[1,3,5,7,-1,-1,9,11,13,15,17,-1,-1,-1,-1,-1,-1,-1,-1],"loss_changes":[1.25102455E2,3.9938934E1,8.1565796E1,3.928457E1,0E0,0E0,7.698763E1,2.378407E1,5.973019E1,2.1055538E1,6.742284E1,0E0,0E0,0E0,0E0,0E0,0E0,0E0,0E0],"parents":[2147483647,0,0,1,1,2,2,3,3,6,6,7,7,8,8,9,9,10,10],"right_children":[2,4,6,8,-1,-1,10,12,14,16,18,-1,-1,-1,-1,-1,-1,-1,-1],"split_conditions":[3.2258064E-2,9.6666664E-1,6.1334367E0,3.33E2,-9.970366E-2,9.9266075E-2,7.754278E0,2.5666666E1,3E0,2.5204287E1,5.2473334E2,-6.0871597E-2,2.4111167E-2,-1.3114133E-1,5.0101258E-2,-2.6862998E-3,-1.2089081E-1,2.4154881E-2,-5.6209445E-2],"split_indices":[10,8,2,11,0,0,7,1,5,6,6,0,0,0,0,0,0,0,0],"split_type":[0,0,0,0,0,0,0,0,0,0,0,0,0,0,0,0,0,0,0],"sum_hessian":[1.5443542E3,3.6782016E2,1.176534E3,2.5215942E2,1.1566075E2,1.0473184E2,1.0718021E3,1.6266052E2,8.94989E1,7.5925385E1,9.958768E2,4.4512012E1,1.18148506E2,6.502083E1,2.4478067E1,2.0642612E1,5.528277E1,8.783763E2,1.17500496E2],"tree_param":{"num_deleted":"0","num_feature":"12","num_nodes":"19","size_leaf_vector":"1"}},{"base_weights":[-4.4811903E-3,7.025953E-2,-9.956796E-2,9.6627134E-1,3.5414632E-4,2.0483467E-1,9.880534E-2,-1.27479E-1,4.1885808E-2,6.683476E-2,-5.552516E-2,1.6160991E-2,-3.8591694E-2],"categories":[],"categories_nodes":[],"categories_segments":[],"categories_sizes":[],"default_left":[0,0,0,0,0,0,0,0,0,0,0,0,0],"id":50,"left_children":[1,3,-1,5,7,9,-1,-1,11,-1,-1,-1,-1],"loss_changes":[1.1185145E2,8.79411E1,0E0,1.4828873E0,6.9079796E1,1.8111358E0,0E0,0E0,6.476398E1,0E0,0E0,0E0,0E0],"parents":[2147483647,0,0,1,1,3,3,4,4,5,5,8,8],"right_children":[2,4,-1,6,8,10,-1,-1,12,-1,-1,-1,-1],"split_conditions":[9.6666664E-1,2.9E1,-9.956796E-2,6.397041E0,1E0,2.239E1,9.880534E-2,-1.27479E-1,3.7685E2,6.683476E-2,-5.552516E-2,1.6160991E-2,-3.8591694E-2],"split_indices":[8,11,0,7,5,6,0,0,6,0,0,0,0],"split_type":[0,0,0,0,0,0,0,0,0,0,0,0,0],"sum_hessian":[1.5078708E3,1.403007E3,1.04863785E2,1.0061046E2,1.3023966E3,3.0874102E0,9.752305E1,4.0144608E1,1.262252E3,1.9928395E0,1.0945708E0,9.867298E2,2.7552216E2],"tree_param":{"num_deleted":"0","num_feature":"12","num_nodes":"13","size_leaf_vector":"1"}},{"base_weights":[-4.2746686E-3,-4.413731E-1,1.5435995E-1,-2.5047567E-1,-9.9546306E-2,5.907468E-1,-1.3396995E-2,-5.098218E-2,-9.054655E-1,-1.0038724E-1,6.6953915E-1,1.2748192E-1,-1.8515645E0,-4.418976E-2,3.6126595E-2,2.8567491E-2,-1.22999586E-1,1.986528E-2,8.8125035E-2,1.8143684E-2,-2.7163354E-1,-1.18710496E-1,-2.0147745E-1],"categories":[],"categories_nodes":[],"categories_segments":[],"categories_sizes":[],"default_left":[0,0,0,0,0,0,0,0,0,0,0,0,0,0,0,0,0,0,0,0,0,0,0],"id":51,"left_children":[1,3,5,7,-1,9,11,13,15,-1,17,19,21,-1,-1,-1,-1,-1,-1,-1,-1,-1,-1],"loss_changes":[1.0293004E2,4.1561493E1,7.974358E1,3.8543625E1,0E0,3.8674698E1,2.0422293E2,3.681266E1,2.698172E1,0E0,2.8618118E1,1.1289846E2,3.6962585E0,0E0,0E0,0E0,0E0,0E0,0E0,0E0,0E0,0E0,0E0],"parents":[2147483647,0,0,1,1,2,2,3,3,5,5,6,6,7,7,8,8,10,10,11,11,12,12],"right_children":[2,4,6,8,-1,10,12,14,16,-1,18,20,22,-1,-1,-1,-1,-1,-1,-1,-1,-1,-1],"split_conditions":[1.6949153E-2,9.245283E-1,5E0,2.2772162E2,-9.9546306E-2,2.5403413E-1,2.0689656E-1,8.695652E-1,6.9E1,-1.0038724E-1,7.194245E-3,2.1052632E-1,7.194245E-3,-4.418976E-2,3.6126595E-2,2.8567491E-2,-1.22999586E-1,1.986528E-2,8.8125035E-2,1.8143684E-2,-2.7163354E-1,-1.18710496E-1,-2.0147745E-1],"split_indices":[9,8,0,6,0,7,9,8,11,0,10,10,10,0,0,0,0,0,0,0,0,0,0],"split_type":[0,0,0,0,0,0,0,0,0,0,0,0,0,0,0,0,0,0,0,0,0,0,0],"sum_hessian":[1.4824651E3,3.9428323E2,1.0881819E3,2.943311E2,9.995215E1,3.014631E2,7.8671875E2,2.2644075E2,6.7890335E1,1.3641528E1,2.878216E2,7.315804E2,5.513837E1,1.161907E2,1.1025005E2,1.4562087E1,5.3328247E1,8.9870544E1,1.9795103E2,7.188775E2,1.2702857E1,1.2504325E1,4.2634045E1],"tree_param":{"num_deleted":"0","num_feature":"12","num_nodes":"23","size_leaf_vector":"1"}},{"base_weights":[-4.697548E-3,-4.617905E-1,1.345538E-1,-2.7490544E-1,-9.931685E-2,-1.0614537E-1,4.2376432E-1,-4.0763643E-2,-8.886567E-1,3.1462422E-1,-8.3283937E-1,5.749125E-1,-1.2590562E-1,-3.947052E-2,4.4496283E-2,-1.3093957E-1,1.1585804E-1,-6.385405E-2,4.6133623E-2,-1.0704103E-2,-1.4659448E-1,6.6915043E-3,6.824505E-2,-1.262978E-1,6.577821E-2],"categories":[],"categories_nodes":[],"categories_segments":[],"categories_sizes":[],"default_left":[0,0,0,0,0,0,0,0,0,0,0,0,0,0,0,0,0,0,0,0,0,0,0,0,0],"id":52,"left_children":[1,3,5,7,-1,9,11,13,15,17,19,21,23,-1,-1,-1,-1,-1,-1,-1,-1,-1,-1,-1,-1],"loss_changes":[9.17501E1,3.315264E1,7.695961E1,3.5946846E1,0E0,1.8489278E2,4.1785355E1,3.1516106E1,6.103439E1,5.3871517E1,1.01712296E2,2.147644E1,9.805459E1,0E0,0E0,0E0,0E0,0E0,0E0,0E0,0E0,0E0,0E0,0E0,0E0],"parents":[2147483647,0,0,1,1,2,2,3,3,5,5,6,6,7,7,8,8,9,9,10,10,11,11,12,12],"right_children":[2,4,6,8,-1,10,12,14,16,18,20,22,24,-1,-1,-1,-1,-1,-1,-1,-1,-1,-1,-1,-1],"split_conditions":[3.7037037E-2,9.6666664E-1,1.1064918E2,2.739531E2,-9.931685E-2,1.16567406E2,5.2473334E2,7.051898E1,7.7555994E2,7.754278E0,6E0,1.2658228E-2,3.839577E2,-3.947052E-2,4.4496283E-2,-1.3093957E-1,1.1585804E-1,-6.385405E-2,4.6133623E-2,-1.0704103E-2,-1.4659448E-1,6.6915043E-3,6.824505E-2,-1.262978E-1,6.577821E-2],"split_indices":[10,8,7,6,0,6,6,7,7,7,0,9,7,0,0,0,0,0,0,0,0,0,0,0,0],"split_type":[0,0,0,0,0,0,0,0,0,0,0,0,0,0,0,0,0,0,0,0,0,0,0,0,0],"sum_hessian":[1.4394838E3,3.3559058E2,1.1038932E3,2.4939572E2,8.6194855E1,6.028208E2,5.010724E2,1.8129816E2,6.8097565E1,3.8212833E2,2.2069249E2,3.9296814E2,1.0810423E2,1.0498475E2,7.631341E1,5.67873E1,1.1310263E1,5.052474E1,3.3160358E2,1.0336402E2,1.1732847E2,6.893751E1,3.2403064E2,4.3857986E1,6.424625E1],"tree_param":{"num_deleted":"0","num_feature":"12","num_nodes":"25","size_leaf_vector":"1"}},{"base_weights":[-4.292471E-3,9.8796934E-2,-6.5347366E-2,5.591271E-3,-8.793405E-1,-1.8818839E-1,2.6891857E-1,-1.0990105E0,5.6874454E-1,2.0087987E-2,-7.850071E-2,5.2070566E-2,-8.239611E-3,-9.917185E-2,-1.6931973E-1,1.0238987E-1,-1.1967989E-1],"categories":[],"categories_nodes":[],"categories_segments":[],"categories_sizes":[],"default_left":[0,0,0,0,0,0,0,0,0,0,0,0,0,0,0,0,0],"id":53,"left_children":[1,-1,3,5,7,9,11,13,15,-1,-1,-1,-1,-1,-1,-1,-1],"loss_changes":[8.4671364E1,0E0,7.602685E1,6.1895885E1,3.4198746E1,1.6241885E2,4.5528137E1,4.184906E0,1.2926409E1,0E0,0E0,0E0,0E0,0E0,0E0,0E0,0E0],"parents":[2147483647,0,0,2,2,3,3,4,4,5,5,6,6,7,7,8,8],"right_children":[2,-1,4,6,8,10,12,14,16,-1,-1,-1,-1,-1,-1,-1,-1],"split_conditions":[7E0,9.8796934E-2,9.375E-1,1.1252125E2,3.941E3,1.16567406E2,3.7685E2,1.6949153E-2,2.352E3,2.0087987E-2,-7.850071E-2,5.2070566E-2,-8.239611E-3,-9.917185E-2,-1.6931973E-1,1.0238987E-1,-1.1967989E-1],"split_indices":[4,0,8,7,11,6,6,9,4,0,0,0,0,0,0,0,0],"split_type":[0,0,0,0,0,0,0,0,0,0,0,0,0,0,0,0,0],"sum_hessian":[1.3955564E3,8.001263E1,1.3155438E3,1.2109996E3,1.045442E2,6.977894E2,5.1321014E2,9.098337E1,1.3560833E1,4.2281693E2,2.7497247E2,2.986708E2,2.1453937E2,7.9328156E1,1.1655211E1,1.1115374E1,2.4454594E0],"tree_param":{"num_deleted":"0","num_feature":"12","num_nodes":"17","size_leaf_vector":"1"}},{"base_weights":[-3.908664E-3,-1.1787151E0,4.4127133E-2,-1.03919744E-1,-1.4175917E-1,2.0140517E-1,-3.18969E-1,3.5482252E-1,-2.505951E-1,-8.2578593E-1,1.446198E-1,-1.6862605E-2,5.513018E-2,-1.2287567E-1,3.141503E-2,-1.367005E-1,-3.6450014E-3,6.444148E-2,-2.4489585E-2],"categories":[],"categories_nodes":[],"categories_segments":[],"categories_sizes":[],"default_left":[0,0,0,0,0,0,0,0,0,0,0,0,0,0,0,0,0,0,0],"id":54,"left_children":[1,3,5,-1,-1,7,9,11,13,15,17,-1,-1,-1,-1,-1,-1,-1,-1],"loss_changes":[7.715429E1,3.1672668E-1,7.507789E1,0E0,0E0,6.3689327E1,9.349002E1,7.0559616E1,1.2909927E2,8.111752E1,4.0728996E1,0E0,0E0,0E0,0E0,0E0,0E0,0E0,0E0],"parents":[2147483647,0,0,1,1,2,2,5,5,6,6,7,7,8,8,9,9,10,10],"right_children":[2,4,6,-1,-1,8,10,12,14,16,18,-1,-1,-1,-1,-1,-1,-1,-1],"split_conditions":[1E0,2.9411765E-2,4.74E2,-1.03919744E-1,-1.4175917E-1,3.20026E2,3.69E2,2.5652208E1,2.2336073E2,1.7191942E2,9.772E1,-1.6862605E-2,5.513018E-2,-1.2287567E-1,3.141503E-2,-1.367005E-1,-3.6450014E-3,6.444148E-2,-2.4489585E-2],"split_indices":[5,9,11,0,0,6,4,7,7,7,6,0,0,0,0,0,0,0,0],"split_type":[0,0,0,0,0,0,0,0,0,0,0,0,0,0,0,0,0,0,0],"sum_hessian":[1.365268E3,5.270594E1,1.312562E3,3.6650364E1,1.6055578E1,9.161636E2,3.9639838E2,6.8416144E2,2.3200218E2,1.8899687E2,2.074015E2,1.8675677E2,4.9740466E2,8.448866E1,1.4751352E2,1.11686005E2,7.731087E1,9.055467E1,1.1684683E2],"tree_param":{"num_deleted":"0","num_feature":"12","num_nodes":"19","size_leaf_vector":"1"}},{"base_weights":[-3.752604E-3,-4.0324658E-1,1.3840693E-1,-2.2505409E-1,-9.167938E-1,5.6935334E-1,-2.5065662E-2,-8.310122E-1,-1.16409175E-2,6.901889E-2,-1.15151085E-1,-9.842067E-2,6.4021134E-1,1.0155567E-1,-1.7644341E0,-1.1159928E-1,3.4864243E-2,2.8866807E-2,-6.697857E-2,6.6198684E-2,-1.04551315E-1,2.1546042E-2,8.530585E-2,1.522878E-2,-2.4349009E-1,-1.157251E-1,-1.9058923E-1],"categories":[],"categories_nodes":[],"categories_segments":[],"categories_sizes":[],"default_left":[0,0,0,0,0,0,0,0,0,0,0,0,0,0,0,0,0,0,0,0,0,0,0,0,0,0,0],"id":55,"left_children":[1,3,5,7,9,11,13,15,17,19,-1,-1,21,23,25,-1,-1,-1,-1,-1,-1,-1,-1,-1,-1,-1,-1],"loss_changes":[7.614272E1,3.1994228E1,6.967815E1,3.394448E1,2.0978104E1,3.057177E1,1.5828517E2,2.3374352E1,3.8771656E1,1.2794485E1,0E0,0E0,2.3388481E1,8.660033E1,1.9831238E0,0E0,0E0,0E0,0E0,0E0,0E0,0E0,0E0,0E0,0E0,0E0,0E0],"parents":[2147483647,0,0,1,1,2,2,3,3,4,4,5,5,6,6,7,7,8,8,9,9,12,12,13,13,14,14],"right_children":[2,4,6,8,10,12,14,16,18,20,-1,-1,22,24,26,-1,-1,-1,-1,-1,-1,-1,-1,-1,-1,-1,-1],"split_conditions":[2.7027028E-2,2.2772162E2,5E0,2.008E1,6.9E1,2.5403413E-1,2.0689656E-1,5.47E2,5.02E1,3.20026E2,-1.15151085E-1,-9.842067E-2,7.194245E-3,2.1052632E-1,7.194245E-3,-1.1159928E-1,3.4864243E-2,2.8866807E-2,-6.697857E-2,6.6198684E-2,-1.04551315E-1,2.1546042E-2,8.530585E-2,1.522878E-2,-2.4349009E-1,-1.157251E-1,-1.9058923E-1],"split_indices":[9,6,0,7,11,7,9,4,1,6,0,0,10,10,10,0,0,0,0,0,0,0,0,0,0,0,0],"split_type":[0,0,0,0,0,0,0,0,0,0,0,0,0,0,0,0,0,0,0,0,0,0,0,0,0,0,0],"sum_hessian":[1.3387498E3,3.508792E2,9.8787054E2,2.615603E2,8.931891E1,2.7099384E2,7.168767E2,6.737216E1,1.9418814E2,1.7312458E1,7.2006454E1,1.12586355E1,2.597352E2,6.69109E2,4.7767715E1,5.430673E1,1.3065436E1,1.3372934E2,6.0458805E1,1.156535E1,5.747108E0,8.737826E1,1.7235695E2,6.5691E2,1.2199018E1,1.0760614E1,3.70071E1],"tree_param":{"num_deleted":"0","num_feature":"12","num_nodes":"27","size_leaf_vector":"1"}},{"base_weights":[-4.3672114E-3,9.84944E-2,-5.904004E-2,2.9378887E-3,-8.66227E-1,-1.245965E-1,3.88189E-2,-1.0959827E0,5.347712E-1,2.9077027E-2,-1.2682547E-2,-9.880734E-2,-1.605771E-1,9.861565E-2,-1.177776E-1],"categories":[],"categories_nodes":[],"categories_segments":[],"categories_sizes":[],"default_left":[0,0,0,0,0,0,0,0,0,0,0,0,0,0,0],"id":56,"left_children":[1,-1,3,5,7,-1,9,11,13,-1,-1,-1,-1,-1,-1],"loss_changes":[7.0512665E1,0E0,6.1802246E1,5.1502186E1,2.8941162E1,0E0,4.665915E1,2.5945892E0,1.127488E1,0E0,0E0,0E0,0E0,0E0,0E0],"parents":[2147483647,0,0,2,2,3,3,4,4,6,6,7,7,8,8],"right_children":[2,-1,4,6,8,-1,10,12,14,-1,-1,-1,-1,-1,-1],"split_conditions":[7E0,9.84944E-2,9.375E-1,1E0,3.941E3,-1.245965E-1,6E0,1.6949153E-2,2.352E3,2.9077027E-2,-1.2682547E-2,-9.880734E-2,-1.605771E-1,9.861565E-2,-1.177776E-1],"split_indices":[4,0,8,5,11,0,0,9,4,0,0,0,0,0,0],"split_type":[0,0,0,0,0,0,0,0,0,0,0,0,0,0,0],"sum_hessian":[1.3015797E3,6.727188E1,1.2343077E3,1.1472178E3,8.709003E1,3.1097256E1,1.1161205E3,7.500702E1,1.2083011E1,4.4242297E2,6.736975E2,6.432851E1,1.0678513E1,9.898237E0,2.1847737E0],"tree_param":{"num_deleted":"0","num_feature":"12","num_nodes":"15","size_leaf_vector":"1"}},{"base_weights":[-4.258543E-3,9.8255485E-2,-5.4314047E-2,2.524853E-3,-8.600329E-1,-4.678114E-1,9.4929256E-2,-1.0902195E0,5.15533E-1,3.9546728E-2,-1.03558086E-1,2.1943448E-2,-2.685201E-2,-9.862063E-2,-1.5512055E-1,9.6182615E-2,-1.1553838E-1],"categories":[],"categories_nodes":[],"categories_segments":[],"categories_sizes":[],"default_left":[0,0,0,0,0,0,0,0,0,0,0,0,0,0,0,0,0],"id":57,"left_children":[1,-1,3,5,7,9,11,13,15,-1,-1,-1,-1,-1,-1,-1,-1],"loss_changes":[6.34516E1,0E0,5.598663E1,4.9716652E1,2.6069847E1,9.247786E1,4.332246E1,1.7945328E0,1.0229266E1,0E0,0E0,0E0,0E0,0E0,0E0,0E0,0E0],"parents":[2147483647,0,0,2,2,3,3,4,4,5,5,6,6,7,7,8,8],"right_children":[2,-1,4,6,8,10,12,14,16,-1,-1,-1,-1,-1,-1,-1,-1],"split_conditions":[7E0,9.8255485E-2,9.375E-1,1.7027327E1,3.941E3,3.086E1,3.7685E2,1.6949153E-2,2.352E3,3.9546728E-2,-1.03558086E-1,2.1943448E-2,-2.685201E-2,-9.862063E-2,-1.5512055E-1,9.6182615E-2,-1.1553838E-1],"split_indices":[4,0,8,7,11,6,6,9,4,0,0,0,0,0,0,0,0],"split_type":[0,0,0,0,0,0,0,0,0,0,0,0,0,0,0,0,0],"sum_hessian":[1.2824834E3,6.101336E1,1.2214701E3,1.1419116E3,7.9558525E1,1.8683961E2,9.5507196E2,6.833141E1,1.1227114E1,7.424917E1,1.12590454E2,7.116734E2,2.4339851E2,5.831338E1,1.0018031E1,9.195433E0,2.0316803E0],"tree_param":{"num_deleted":"0","num_feature":"12","num_nodes":"17","size_leaf_vector":"1"}},{"base_weights":[-4.135212E-3,8.359961E-1,-5.9660815E-2,9.4229084E-1,-1.1385538E-1,-1.3028278E-2,-1.498731E0,-7.660769E-2,1.020417E-1,-1.73187E-1,3.387229E-1,-9.919159E-2,-1.7322549E0,-9.416453E-3,-1.11474924E-1,4.8530266E-2,-1.35009065E-2,-1.3820195E-1,-2.1526323E-1],"categories":[],"categories_nodes":[],"categories_segments":[],"categories_sizes":[],"default_left":[0,0,0,0,0,0,0,0,0,0,0,0,0,0,0,0,0,0,0],"id":58,"left_children":[1,3,5,7,-1,9,11,-1,-1,13,15,-1,17,-1,-1,-1,-1,-1,-1],"loss_changes":[5.8876724E1,1.7495255E1,7.942322E1,1.0764488E1,0E0,6.471355E1,2.67836E0,0E0,0E0,5.861977E1,2.5022259E1,0E0,5.7193756E-1,0E0,0E0,0E0,0E0,0E0,0E0],"parents":[2147483647,0,0,1,1,2,2,3,3,5,5,6,6,9,9,10,10,12,12],"right_children":[2,4,6,8,-1,10,12,-1,-1,14,16,-1,18,-1,-1,-1,-1,-1,-1],"split_conditions":[3.529412E-1,4E0,2.631579E-1,1.9341234E0,-1.1385538E-1,2E0,2.008E1,-7.660769E-2,1.020417E-1,9.230769E-1,7.17E2,-9.919159E-2,3.2258064E-2,-9.416453E-3,-1.11474924E-1,4.8530266E-2,-1.35009065E-2,-1.3820195E-1,-2.1526323E-1],"split_indices":[8,0,10,7,0,5,7,0,0,8,11,0,9,0,0,0,0,0,0],"split_type":[0,0,0,0,0,0,0,0,0,0,0,0,0,0,0,0,0,0,0],"sum_hessian":[1.2600582E3,7.724501E1,1.1828132E3,7.379521E1,3.4497921E0,1.146665E3,3.6148205E1,2.8420935E0,7.0953125E1,7.8826245E2,3.5840262E2,1.3057408E1,2.3090796E1,7.2824316E2,6.001925E1,2.736934E2,8.470923E1,1.49351845E1,8.15561E0],"tree_param":{"num_deleted":"0","num_feature":"12","num_nodes":"19","size_leaf_vector":"1"}},{"base_weights":[-4.2188647E-3,9.7952016E-2,-4.9464982E-2,-1.1555745E-1,-1.0942238E-2,5.132156E-2,-6.285106E-1,1.44201955E-2,-4.468612E-2,-2.706951E-1,-3.9636306E-3],"categories":[],"categories_nodes":[],"categories_segments":[],"categories_sizes":[],"default_left":[0,0,0,0,0,0,0,0,0,0,0],"id":59,"left_children":[1,-1,3,-1,5,7,9,-1,-1,-1,-1],"loss_changes":[5.526527E1,0E0,5.056339E1,0E0,4.4175503E1,4.8361927E1,1.28673E2,0E0,0E0,0E0,0E0],"parents":[2147483647,0,0,2,2,4,4,5,5,6,6],"right_children":[2,-1,4,-1,6,8,10,-1,-1,-1,-1],"split_conditions":[7E0,9.7952016E-2,1E0,-1.1555745E-1,1.6E1,4.74305E2,8.75E-1,1.44201955E-2,-4.468612E-2,-2.706951E-1,-3.9636306E-3],"split_indices":[4,0,5,0,0,6,8,0,0,0,0],"split_type":[0,0,0,0,0,0,0,0,0,0,0],"sum_hessian":[1.2395382E3,5.3596516E1,1.1859418E3,3.8937115E1,1.1470046E3,1.0427869E3,1.04217804E2,8.795209E2,1.6326591E2,2.2214518E1,8.200329E1],"tree_param":{"num_deleted":"0","num_feature":"12","num_nodes":"11","size_leaf_vector":"1"}},{"base_weights":[-4.0739067E-3,8.270535E-1,-5.4470003E-2,9.3464047E-1,-1.1000824E-1,-1.1533586E-2,-1.4541895E0,-7.51444E-2,1.01585686E-1,-1.5527079E-1,3.0950528E-1,-9.7867325E-2,-1.6583464E-1,-3.450476E-2,2.0999528E-2,4.465925E-2,-1.1244345E-2],"categories":[],"categories_nodes":[],"categories_segments":[],"categories_sizes":[],"default_left":[0,0,0,0,0,0,0,0,0,0,0,0,0,0,0,0,0],"id":60,"left_children":[1,3,5,7,-1,9,11,-1,-1,13,15,-1,-1,-1,-1,-1,-1],"loss_changes":[5.147696E1,1.5595692E1,6.961708E1,9.950016E0,0E0,5.1969643E1,1.7239456E0,0E0,0E0,5.3993652E1,2.0197659E1,0E0,0E0,0E0,0E0,0E0,0E0],"parents":[2147483647,0,0,1,1,2,2,3,3,5,5,6,6,9,9,10,10],"right_children":[2,4,6,8,-1,10,12,-1,-1,14,16,-1,-1,-1,-1,-1,-1],"split_conditions":[3.529412E-1,4E0,2.631579E-1,1.9341234E0,-1.1000824E-1,2E0,2.008E1,-7.51444E-2,1.01585686E-1,1.3886429E2,7.17E2,-9.7867325E-2,-1.6583464E-1,-3.450476E-2,2.0999528E-2,4.465925E-2,-1.1244345E-2],"split_indices":[8,0,10,7,0,5,7,0,0,7,11,0,0,0,0,0,0],"split_type":[0,0,0,0,0,0,0,0,0,0,0,0,0,0,0,0,0],"sum_hessian":[1.2269147E3,6.926083E1,1.1576538E3,6.608641E1,3.1744223E0,1.1241779E3,3.3475933E1,2.657764E0,6.3428646E1,7.7686993E2,3.4730792E2,1.1795627E1,2.1680305E1,5.112838E2,2.6558612E2,2.6209674E2,8.521118E1],"tree_param":{"num_deleted":"0","num_feature":"12","num_nodes":"17","size_leaf_vector":"1"}},{"base_weights":[-3.6910858E-3,-3.829295E-1,1.0546672E-1,-1.1649632E-1,-7.798325E-1,-1.22647375E-1,3.2231545E-1,-4.4309253E-1,3.710386E-1,-2.5286368E-1,-1.3324261E0,2.7284628E-1,-9.8811394E-1,-2.671041E-1,4.3540695E-1,-1.1486856E-2,-1.4986679E-1,-1.132708E-1,5.819078E-2,-7.821886E-2,7.775541E-2,-1.4869028E-1,-4.582258E-2,3.375433E-2,-1.4102E-1,1.240552E-3,-1.494175E-1,4.565041E-2,-1.2938778E-1,5.8760483E-2,-6.906125E-3],"categories":[],"categories_nodes":[],"categories_segments":[],"categories_sizes":[],"default_left":[0,0,0,0,0,0,0,0,0,0,0,0,0,0,0,0,0,0,0,0,0,0,0,0,0,0,0,0,0,0,0],"id":61,"left_children":[1,3,5,7,9,11,13,15,17,19,21,23,25,27,29,-1,-1,-1,-1,-1,-1,-1,-1,-1,-1,-1,-1,-1,-1,-1,-1],"loss_changes":[5.018758E1,2.8562862E1,4.660783E1,2.616681E1,3.130423E1,1.5755539E2,3.230564E1,3.3867638E1,2.1604809E1,3.1617159E1,6.4496613E0,3.49036E1,7.3101776E1,5.8809216E1,3.1177727E1,0E0,0E0,0E0,0E0,0E0,0E0,0E0,0E0,0E0,0E0,0E0,0E0,0E0,0E0,0E0,0E0],"parents":[2147483647,0,0,1,1,2,2,3,3,4,4,5,5,6,6,7,7,8,8,9,9,10,10,11,11,12,12,13,13,14,14],"right_children":[2,4,6,8,10,12,14,16,18,20,22,24,26,28,30,-1,-1,-1,-1,-1,-1,-1,-1,-1,-1,-1,-1,-1,-1,-1,-1],"split_conditions":[3.7037037E-2,2.88E2,8.516858E1,2.04E2,1.3062E2,1.15027145E2,3.448276E-2,2.739531E2,2.5652208E1,3E0,1.285E3,1.6E1,1.45E2,3.375E1,5.2473334E2,-1.1486856E-2,-1.4986679E-1,-1.132708E-1,5.819078E-2,-7.821886E-2,7.775541E-2,-1.4869028E-1,-4.582258E-2,3.375433E-2,-1.4102E-1,1.240552E-3,-1.494175E-1,4.565041E-2,-1.2938778E-1,5.8760483E-2,-6.906125E-3],"split_indices":[10,11,7,11,6,6,9,6,7,5,4,0,11,1,6,0,0,0,0,0,0,0,0,0,0,0,0,0,0,0,0],"split_type":[0,0,0,0,0,0,0,0,0,0,0,0,0,0,0,0,0,0,0,0,0,0,0,0,0,0,0,0,0,0,0],"sum_hessian":[1.2103773E3,2.6996188E2,9.4041547E2,1.6230396E2,1.0765794E2,4.5851495E2,4.819005E2,9.724882E1,6.505514E1,5.5852768E1,5.1805176E1,3.1517407E2,1.4334087E2,7.735798E1,4.0454254E2,7.5028145E1,2.222067E1,7.4630637E0,5.7592075E1,3.705734E1,1.8795431E1,4.342996E1,8.375217E0,3.0427698E2,1.0897094E1,4.847593E1,9.486494E1,4.570397E1,3.1654005E1,3.1065366E2,9.388889E1],"tree_param":{"num_deleted":"0","num_feature":"12","num_nodes":"31","size_leaf_vector":"1"}},{"base_weights":[-4.2810617E-3,9.75405E-2,-4.4931788E-2,-1.1386677E-1,-1.0269621E-2,8.005521E-1,-5.2938312E-2,9.228068E-2,-1.0632845E-1,-1.2243025E-3,-1.4513013E-1],"categories":[],"categories_nodes":[],"categories_segments":[],"categories_sizes":[],"default_left":[0,0,0,0,0,0,0,0,0,0,0],"id":62,"left_children":[1,-1,3,-1,5,7,9,-1,-1,-1,-1],"loss_changes":[4.688719E1,0E0,4.2840393E1,0E0,3.7981598E1,1.3487503E1,5.932056E1,0E0,0E0,0E0,0E0],"parents":[2147483647,0,0,2,2,4,4,5,5,6,6],"right_children":[2,-1,4,-1,6,8,10,-1,-1,-1,-1],"split_conditions":[7E0,9.75405E-2,1E0,-1.1386677E-1,3.529412E-1,4E0,2.631579E-1,9.228068E-2,-1.0632845E-1,-1.2243025E-3,-1.4513013E-1],"split_indices":[4,0,5,0,8,0,10,0,0,0,0],"split_type":[0,0,0,0,0,0,0,0,0,0,0],"sum_hessian":[1.1752317E3,4.5905697E1,1.129326E3,3.3712288E1,1.0956138E3,5.3885223E1,1.0417285E3,5.1042107E1,2.8431172E0,1.0132496E3,2.8478928E1],"tree_param":{"num_deleted":"0","num_feature":"12","num_nodes":"11","size_leaf_vector":"1"}},{"base_weights":[-3.999924E-3,3.338379E-2,-9.79033E-2,1.6581878E-1,-2.4859074E-1,2.9704377E-1,-2.3728539E-1,-7.152021E-1,1.7604081E-1,-1.5775459E-2,4.7902077E-2,-1.122425E-1,3.3096757E-2,-1.23091795E-1,8.2333444E-4,4.8590433E-2,-5.0443072E-2],"categories":[],"categories_nodes":[],"categories_segments":[],"categories_sizes":[],"default_left":[0,0,0,0,0,0,0,0,0,0,0,0,0,0,0,0,0],"id":63,"left_children":[1,3,-1,5,7,9,11,13,15,-1,-1,-1,-1,-1,-1,-1,-1],"loss_changes":[4.243911E1,4.191838E1,0E0,4.0464767E1,7.121284E1,4.7791615E1,9.498052E1,6.3858566E1,4.0020393E1,0E0,0E0,0E0,0E0,0E0,0E0,0E0,0E0],"parents":[2147483647,0,0,1,1,3,3,4,4,5,5,6,6,7,7,8,8],"right_children":[2,4,-1,6,8,10,12,14,16,-1,-1,-1,-1,-1,-1,-1,-1],"split_conditions":[9.6666664E-1,4.74E2,-9.79033E-2,3.20026E2,3.69E2,2.5652208E1,2.4438391E2,1.7191942E2,1.3533333E2,-1.5775459E-2,4.7902077E-2,-1.122425E-1,3.3096757E-2,-1.23091795E-1,8.2333444E-4,4.8590433E-2,-5.0443072E-2],"split_indices":[8,11,0,6,4,7,7,7,1,0,0,0,0,0,0,0,0],"split_type":[0,0,0,0,0,0,0,0,0,0,0,0,0,0,0,0,0],"sum_hessian":[1.1624022E3,1.1204104E3,4.199186E1,7.626353E2,3.5777502E2,5.755395E2,1.8709583E2,1.7013542E2,1.876396E2,1.645151E2,4.1102438E2,7.277015E1,1.1432568E2,9.891812E1,7.121731E1,1.2912596E2,5.8513638E1],"tree_param":{"num_deleted":"0","num_feature":"12","num_nodes":"17","size_leaf_vector":"1"}},{"base_weights":[-3.7534316E-3,9.7172745E-2,-4.0431462E-2,-7.403472E-2,9.7096306E-1,2.9807907E-2,-4.86315E-1,-6.4763516E-2,1.0571666E0,9.803066E-3,-6.9741376E-2,-1.1660526E-1,-2.4831743E-4,1.08403124E-1,4.4766776E-2],"categories":[],"categories_nodes":[],"categories_segments":[],"categories_sizes":[],"default_left":[0,0,0,0,0,0,0,0,0,0,0,0,0,0,0],"id":64,"left_children":[1,-1,3,5,7,9,11,-1,13,-1,-1,-1,-1,-1,-1],"loss_changes":[4.0910545E1,0E0,3.7521206E1,4.5712116E1,5.6384735E0,4.24171E1,7.064517E1,0E0,7.287598E-2,0E0,0E0,0E0,0E0,0E0,0E0],"parents":[2147483647,0,0,2,2,3,3,4,4,5,5,6,6,8,8],"right_children":[2,-1,4,6,8,10,12,-1,14,-1,-1,-1,-1,-1,-1],"split_conditions":[7E0,9.7172745E-2,7.219535E2,3.7685E2,5.5555556E-2,1.6E1,4.8169838E1,-6.4763516E-2,8.825E1,9.803066E-3,-6.9741376E-2,-1.1660526E-1,-2.4831743E-4,1.08403124E-1,4.4766776E-2],"split_indices":[4,0,7,6,9,0,2,0,1,0,0,0,0,0,0],"split_type":[0,0,0,0,0,0,0,0,0,0,0,0,0,0,0],"sum_hessian":[1.1413345E3,4.0435204E1,1.1008993E3,1.0663954E3,3.4503853E1,8.525804E2,2.1381502E2,1.4153692E0,3.308848E1,7.802483E2,7.233213E1,8.832159E1,1.2549343E2,3.0945934E1,2.142549E0],"tree_param":{"num_deleted":"0","num_feature":"12","num_nodes":"15","size_leaf_vector":"1"}},{"base_weights":[-3.065489E-3,-1.1238915E-1,2.824726E-2,8.03522E-1,-1.3444714E-2,9.110207E-1,-1.0197369E-1,2.3402646E-2,-1.4283245E0,-7.4061446E-2,1.0056074E-1,5.4854825E-3,-9.703377E-2,-9.397923E-2,-1.5942802E-1],"categories":[],"categories_nodes":[],"categories_segments":[],"categories_sizes":[],"default_left":[0,0,0,0,0,0,0,0,0,0,0,0,0,0,0],"id":65,"left_children":[1,-1,3,5,7,9,-1,11,13,-1,-1,-1,-1,-1,-1],"loss_changes":[3.9842712E1,0E0,3.5710827E1,1.1979633E1,5.4728096E1,9.144917E0,0E0,3.204181E1,6.618767E-1,0E0,0E0,0E0,0E0,0E0,0E0],"parents":[2147483647,0,0,2,2,3,3,4,4,5,5,7,7,8,8],"right_children":[2,-1,4,6,8,10,-1,12,14,-1,-1,-1,-1,-1,-1],"split_conditions":[1E0,-1.1238915E-1,3.529412E-1,4E0,2.631579E-1,1.9341234E0,-1.0197369E-1,9.6666664E-1,2.008E1,-7.4061446E-2,1.0056074E-1,5.4854825E-3,-9.703377E-2,-9.397923E-2,-1.5942802E-1],"split_indices":[5,0,8,0,10,7,0,8,7,0,0,0,0,0,0],"split_type":[0,0,0,0,0,0,0,0,0,0,0,0,0,0,0],"sum_hessian":[1.1333402E3,2.9853537E1,1.1034867E3,5.5381336E1,1.0481053E3,5.2770348E1,2.6109884E0,1.02246106E3,2.564424E1,2.4884262E0,5.028192E1,9.920085E2,3.0452564E1,8.191985E0,1.7452255E1],"tree_param":{"num_deleted":"0","num_feature":"12","num_nodes":"15","size_leaf_vector":"1"}},{"base_weights":[-3.424734E-3,-6.025724E-2,5.668647E-1,5.2180845E-2,-6.396934E-1,-9.777843E-2,6.695309E-1,-1.307762E-1,3.1027418E-1,-8.5507646E-2,-1.0602599E0,-7.2054274E-2,8.031862E-1,1.8031701E-2,-9.757062E-2,-2.1645583E-2,4.4701498E-2,3.3159923E-2,-1.4534791E-1,-1.4603682E-1,-2.293267E-2,8.561592E-2,-1.5052441E-1,8.60719E-2,-1.1354361E-1],"categories":[],"categories_nodes":[],"categories_segments":[],"categories_sizes":[],"default_left":[0,0,0,0,0,0,0,0,0,0,0,0,0,0,0,0,0,0,0,0,0,0,0,0,0],"id":66,"left_children":[1,3,5,7,9,-1,11,13,15,17,19,21,23,-1,-1,-1,-1,-1,-1,-1,-1,-1,-1,-1,-1],"loss_changes":[3.633238E1,6.64445E1,1.6765053E1,4.0395477E1,3.8536774E1,0E0,9.558384E0,1.3181377E2,2.5652039E1,4.1903595E1,3.0962334E1,2.1981491E1,1.0044685E1,0E0,0E0,0E0,0E0,0E0,0E0,0E0,0E0,0E0,0E0,0E0,0E0],"parents":[2147483647,0,0,1,1,2,2,3,3,4,4,6,6,7,7,8,8,9,9,10,10,11,11,12,12],"right_children":[2,4,6,8,10,-1,12,14,16,18,20,22,24,-1,-1,-1,-1,-1,-1,-1,-1,-1,-1,-1,-1],"split_conditions":[4.2880737E2,3.7685E2,2.7027028E-2,7.181083E1,6E0,-9.777843E-2,7.4E1,1.15027145E2,3.125E-2,6.785714E-1,3.42E2,8.3E1,9.230769E-1,1.8031701E-2,-9.757062E-2,-2.1645583E-2,4.4701498E-2,3.3159923E-2,-1.4534791E-1,-1.4603682E-1,-2.293267E-2,8.561592E-2,-1.5052441E-1,8.60719E-2,-1.1354361E-1],"split_indices":[7,6,9,7,0,0,4,6,9,8,4,11,8,0,0,0,0,0,0,0,0,0,0,0,0],"split_type":[0,0,0,0,0,0,0,0,0,0,0,0,0,0,0,0,0,0,0,0,0,0,0,0,0],"sum_hessian":[1.118936E3,1.01834644E3,1.0058954E2,8.536147E2,1.6473178E2,5.737838E0,9.48517E1,4.9980588E2,3.5380878E2,7.159434E1,9.313744E1,1.4554891E1,8.029681E1,3.6587985E2,1.3392603E2,7.279956E1,2.8100922E2,5.544596E1,1.6148378E1,6.2354973E1,3.0782467E1,9.078056E0,5.4768343E0,7.85225E1,1.7743108E0],"tree_param":{"num_deleted":"0","num_feature":"12","num_nodes":"25","size_leaf_vector":"1"}},{"base_weights":[-3.4332878E-3,-1.113446E-1,2.5854632E-2,9.684708E-2,-7.050368E-3,1.2931912E-2,-1.4645939E-1,8.700486E-2,-2.4257558E-3],"categories":[],"categories_nodes":[],"categories_segments":[],"categories_sizes":[],"default_left":[0,0,0,0,0,0,0,0,0],"id":67,"left_children":[1,-1,3,-1,5,7,-1,-1,-1],"loss_changes":[3.566437E1,0E0,3.3161983E1,0E0,3.0130707E1,3.2562645E1,0E0,0E0,0E0],"parents":[2147483647,0,0,2,2,4,4,5,5],"right_children":[2,-1,4,-1,6,8,-1,-1,-1],"split_conditions":[1E0,-1.113446E-1,7E0,9.684708E-2,3.5E-1,3.529412E-1,-1.4645939E-1,8.700486E-2,-2.4257558E-3],"split_indices":[5,0,4,0,9,8,0,0,0],"split_type":[0,0,0,0,0,0,0,0,0],"sum_hessian":[1.0951436E3,2.720118E1,1.0679424E3,3.5063393E1,1.032879E3,1.01988794E3,1.2991089E1,4.1480457E1,9.784075E2],"tree_param":{"num_deleted":"0","num_feature":"12","num_nodes":"9","size_leaf_vector":"1"}},{"base_weights":[-3.1026774E-3,-4.0094116E-1,7.171565E-2,3.7348685E-1,-9.429331E-1,-2.9926345E-1,1.679103E-1,-4.584358E-1,6.491264E-1,-5.375229E-1,-1.4981627E0,7.4015754E-1,-4.48806E-1,4.722965E-1,2.535528E-2,4.794612E-2,-1.1757275E-1,7.410385E-2,-1.5051138E-1,-1.04792394E-1,1.8580522E-3,-1.15998946E-1,-1.6954237E-1,9.854918E-2,-1.6054243E-1,-1.4699298E-1,-2.615273E-2,5.6328042E-3,6.663689E-2,1.6363185E-2,-2.0141645E-1],"categories":[],"categories_nodes":[],"categories_segments":[],